0;1;2
0.6461306214332581;-0.0;2.0
0.6340189576148987;-0.0;2.0
0.6525397300720215;-0.0;2.0
0.6508764624595642;-0.0;2.0
0.6020214557647705;-0.0;2.0
0.6388479471206665;-0.0;2.0
0.782088041305542;-0.0;2.0
0.8520010113716125;-0.0;2.0
0.762378990650177;-0.0;2.0
0.6394942998886108;-0.0;2.0
0.6193258166313171;-0.0;2.0
0.6825871467590332;-0.0;2.0
0.7107606530189514;-0.0;2.0
0.7072795629501343;-0.0;2.0
0.7266976833343506;-0.0;2.0
0.7756301164627075;-0.0;2.0
0.8156309127807617;-0.0;2.0
0.8958556652069092;-0.0;2.0
0.9941300749778748;-0.0;2.0
0.9999933838844299;-0.0;2.0
0.9999998807907104;-0.0;2.0
1.0;-0.0;2.0
1.0;-0.0;2.0
0.8218592405319214;-0.0;2.0
0.4286947250366211;-0.0;2.0
0.030706167221069336;-0.0;2.0
0.07737910747528076;-0.0;2.0
0.18350887298583984;-0.0;2.0
0.18379604816436768;-0.0;1.0
0.012577712535858154;-0.0;1.0
-0.26138830184936523;-0.0;1.0
-0.4828634262084961;-0.0;2.0
-0.5585442781448364;-0.0;2.0
-0.5589594841003418;-0.0;2.0
-0.5584300756454468;-0.0;2.0
-0.5914878845214844;-0.0;1.0
-0.6553837060928345;-0.0;1.0
-0.7145047187805176;-0.0;1.0
-0.7082107067108154;-0.0;1.0
-0.6025636196136475;-0.0;1.0
-0.4525336027145386;-0.0;2.0
-0.3672678470611572;-0.0;2.0
-0.3530552387237549;-0.0;2.0
-0.31806743144989014;-0.0;2.0
-0.2505965232849121;-0.0;2.0
-0.22891736030578613;-0.0;2.0
-0.29779863357543945;-0.0;2.0
-0.36063408851623535;-0.0;2.0
-0.3410872220993042;-0.0;1.0
-0.2549790143966675;-0.0;1.0
-0.1708362102508545;-0.0;1.0
-0.09436178207397461;-0.0;1.0
0.006349444389343262;-0.0;2.0
0.14140063524246216;-0.0;2.0
0.24571526050567627;-0.0;2.0
0.29250621795654297;-0.0;2.0
0.31389641761779785;-0.0;2.0
0.3133653998374939;-0.0;2.0
0.24800896644592285;-0.0;2.0
0.10190671682357788;-0.0;2.0
-0.051236748695373535;-0.0;2.0
-0.11479353904724121;-0.0;2.0
-0.07707953453063965;-0.0;2.0
-0.008871912956237793;-0.0;2.0
0.03045070171356201;-0.0;2.0
0.04446178674697876;-0.0;2.0
0.04023730754852295;-0.0;2.0
0.01564079523086548;-0.0;2.0
0.0004698038101196289;-0.0;2.0
0.021240592002868652;-0.0;2.0
0.023212730884552002;-0.0;2.0
-0.033057570457458496;-0.0;2.0
-0.10718929767608643;-0.0;2.0
-0.1254558563232422;-0.0;2.0
-0.11636996269226074;-0.0;2.0
-0.13998699188232422;-0.0;2.0
-0.17199361324310303;-0.0;2.0
-0.12407958507537842;-0.0;2.0
-0.027896642684936523;-0.0;2.0
0.052287936210632324;-0.0;2.0
0.07028824090957642;-0.0;2.0
0.06757938861846924;-0.0;1.0
0.07697302103042603;-0.0;1.0
0.1081271767616272;-0.0;2.0
0.12373286485671997;-0.0;2.0
0.14972925186157227;-0.0;2.0
0.195853590965271;-0.0;2.0
0.23144084215164185;-0.0;2.0
0.1845759153366089;-0.0;2.0
0.5112237334251404;-0.0;2.0
0.5041884183883667;-0.0;2.0
0.46671515703201294;-0.0;2.0
0.3430165648460388;-0.0;2.0
0.11386096477508545;-0.0;2.0
-0.12669551372528076;-0.0;2.0
-0.3317098617553711;-0.0;2.0
-0.46042704582214355;-0.0;2.0
-0.4507408142089844;-0.0;2.0
-0.2862834930419922;-0.0;2.0
-0.05703747272491455;-0.0;2.0
0.15910178422927856;-0.0;2.0
0.2996675372123718;-0.0;2.0
0.39650803804397583;-0.0;2.0
0.46440833806991577;-0.0;2.0
0.483465313911438;-0.0;2.0
0.48975539207458496;-0.0;2.0
0.5401623249053955;-0.0;2.0
0.5487464070320129;-0.0;2.0
0.49478012323379517;-0.0;1.0
0.5179218053817749;-0.0;1.0
0.6702017784118652;-0.0;2.0
0.6521751880645752;-0.0;2.0
0.6228363513946533;-0.0;2.0
0.6315112709999084;-0.0;2.0
0.679652214050293;-0.0;2.0
0.7554774880409241;-0.0;2.0
0.8541067242622375;-0.0;2.0
0.8818274140357971;-0.0;2.0
0.7900756001472473;-0.0;2.0
0.6411229372024536;-0.0;2.0
0.5557950139045715;-0.0;2.0
0.5780100226402283;-0.0;2.0
0.630757212638855;-0.0;2.0
0.6831964254379272;-0.0;2.0
0.7397357821464539;-0.0;2.0
0.8013042211532593;-0.0;2.0
0.8371814489364624;-0.0;2.0
0.8864099979400635;-0.0;2.0
0.9795842170715332;-0.0;2.0
0.9999635815620422;-0.0;2.0
0.9999999403953552;-0.0;2.0
1.0;-0.0;2.0
1.0;-0.0;2.0
0.9999961853027344;-0.0;2.0
0.7752951383590698;-0.0;2.0
0.11011600494384766;-0.0;2.0
0.0701494812965393;-0.0;2.0
0.16574114561080933;-0.0;2.0
0.2520216107368469;-0.0;2.0
0.23875176906585693;-0.0;1.0
0.07226639986038208;-0.0;1.0
-0.1948469877243042;-0.0;1.0
-0.4356924295425415;-0.0;2.0
-0.5182139873504639;-0.0;2.0
-0.4726221561431885;-0.0;2.0
-0.42422354221343994;-0.0;2.0
-0.46185219287872314;-0.0;1.0
-0.5577535629272461;-0.0;1.0
-0.6375391483306885;-0.0;1.0
-0.6575747728347778;-0.0;1.0
-0.601315975189209;-0.0;1.0
-0.49387550354003906;-0.0;1.0
-0.3898475170135498;-0.0;1.0
-0.332594633102417;-0.0;2.0
-0.2828422784805298;-0.0;2.0
-0.2592310905456543;-0.0;2.0
-0.3031116724014282;-0.0;2.0
-0.41303932666778564;-0.0;2.0
-0.45275354385375977;-0.0;2.0
-0.35931193828582764;-0.0;2.0
-0.20225906372070312;-0.0;1.0
-0.09208977222442627;-0.0;1.0
-0.047046661376953125;-0.0;2.0
-0.002061128616333008;-0.0;2.0
0.09799182415008545;-0.0;2.0
0.20661985874176025;-0.0;2.0
0.28698521852493286;-0.0;2.0
0.34076404571533203;-0.0;2.0
0.35936570167541504;-0.0;2.0
0.2985360026359558;-0.0;2.0
0.1578567624092102;-0.0;2.0
0.005171418190002441;-0.0;2.0
-0.07088840007781982;-0.0;2.0
-0.0726853609085083;-0.0;2.0
-0.04526984691619873;-0.0;2.0
-0.02012348175048828;-0.0;2.0
0.0036806464195251465;-0.0;2.0
0.02985614538192749;-0.0;2.0
0.04787415266036987;-0.0;2.0
0.0621037483215332;-0.0;2.0
0.07148319482803345;-0.0;2.0
0.05800151824951172;-0.0;2.0
0.0024794936180114746;-0.0;2.0
-0.06028926372528076;-0.0;2.0
-0.07745134830474854;-0.0;2.0
-0.05058884620666504;-0.0;2.0
-0.03571784496307373;-0.0;2.0
-0.05503547191619873;-0.0;2.0
-0.05674111843109131;-0.0;2.0
-0.014067888259887695;-0.0;2.0
0.03849291801452637;-0.0;2.0
0.03794288635253906;-0.0;2.0
0.015221059322357178;-0.0;2.0
0.024839937686920166;-0.0;2.0
0.08475041389465332;-0.0;2.0
0.15672242641448975;-0.0;2.0
0.20843511819839478;-0.0;2.0
0.21605825424194336;-0.0;2.0
0.15774911642074585;-0.0;2.0
0.46295201778411865;-0.0;2.0
0.4216681122779846;-0.0;2.0
0.27765703201293945;-0.0;2.0
0.026483595371246338;-0.0;2.0
-0.20858275890350342;-0.0;2.0
-0.37764620780944824;-0.0;2.0
-0.4399573802947998;-0.0;2.0
-0.38721394538879395;-0.0;2.0
-0.21761083602905273;-0.0;2.0
0.027605175971984863;-0.0;2.0
0.31412142515182495;-0.0;2.0
0.5059927701950073;-0.0;2.0
0.5653088688850403;-0.0;2.0
0.5569461584091187;-0.0;2.0
0.5462223887443542;-0.0;2.0
0.564085841178894;-0.0;2.0
0.6202130317687988;-0.0;2.0
0.6645787954330444;-0.0;1.0
0.6907681226730347;-0.0;1.0
0.5642938017845154;-0.0;2.0
0.6247833967208862;-0.0;2.0
0.6453136205673218;-0.0;2.0
0.6292432546615601;-0.0;2.0
0.6663240194320679;-0.0;2.0
0.7632952332496643;-0.0;2.0
0.8217787742614746;-0.0;2.0
0.8273354172706604;-0.0;2.0
0.7904180884361267;-0.0;2.0
0.7078162431716919;-0.0;2.0
0.5915764570236206;-0.0;2.0
0.511667788028717;-0.0;2.0
0.5262104868888855;-0.0;2.0
0.5862747430801392;-0.0;2.0
0.6250108480453491;-0.0;2.0
0.66778564453125;-0.0;2.0
0.7574532628059387;-0.0;2.0
0.8452333211898804;-0.0;2.0
0.904865562915802;-0.0;2.0
0.9718698263168335;-0.0;2.0
0.9997113943099976;-0.0;2.0
0.9999991059303284;-0.0;2.0
1.0;-0.0;2.0
1.0;-0.0;2.0
1.0;-0.0;2.0
1.0;-0.0;2.0
1.0;-0.0;2.0
1.0;-0.0;2.0
1.0;-0.0;2.0
0.4088539481163025;-0.0;2.0
-0.07813549041748047;-0.0;2.0
-0.05830276012420654;-0.0;2.0
0.05565685033798218;-0.0;2.0
0.15922051668167114;-0.0;2.0
0.22617411613464355;-0.0;2.0
0.22175097465515137;-0.0;2.0
0.09615069627761841;-0.0;1.0
-0.14087045192718506;-0.0;1.0
-0.40215396881103516;-0.0;1.0
-0.5127016305923462;-0.0;2.0
-0.44294774532318115;-0.0;2.0
-0.34009087085723877;-0.0;1.0
-0.34570109844207764;-0.0;1.0
-0.43245601654052734;-0.0;1.0
-0.48765790462493896;-0.0;1.0
-0.4954487085342407;-0.0;3.0
-0.48876452445983887;-0.0;3.0
-0.47439146041870117;-0.0;3.0
-0.41292667388916016;-0.0;1.0
-0.3276388645172119;-0.0;1.0
-0.2692418098449707;-0.0;2.0
-0.2738182544708252;-0.0;2.0
-0.3600844144821167;-0.0;2.0
-0.47843897342681885;-0.0;2.0
-0.47877800464630127;-0.0;2.0
-0.3330702781677246;-0.0;2.0
-0.14273250102996826;-0.0;2.0
-0.020224332809448242;-0.0;2.0
0.010147154331207275;-0.0;2.0
0.024904966354370117;-0.0;2.0
0.08127361536026001;-0.0;2.0
0.15294766426086426;-0.0;2.0
0.22217851877212524;-0.0;2.0
0.29562562704086304;-0.0;2.0
0.34920036792755127;-0.0;2.0
0.32055842876434326;-0.0;2.0
0.20133155584335327;-0.0;2.0
0.05711793899536133;-0.0;2.0
-0.03629136085510254;-0.0;2.0
-0.08546853065490723;-0.0;2.0
-0.09370875358581543;-0.0;2.0
-0.05696678161621094;-0.0;2.0
-0.005729198455810547;-0.0;2.0
0.026295483112335205;-0.0;2.0
0.03985673189163208;-0.0;2.0
0.06732302904129028;-0.0;2.0
0.09016436338424683;-0.0;2.0
0.08843541145324707;-0.0;2.0
0.05191481113433838;-0.0;2.0
0.015767395496368408;-0.0;2.0
0.008125126361846924;-0.0;2.0
0.03339725732803345;-0.0;2.0
0.05376976728439331;-0.0;2.0
0.036146461963653564;-0.0;2.0
0.007777810096740723;-0.0;2.0
-0.0013259649276733398;-0.0;2.0
0.008077442646026611;-0.0;2.0
-0.00857234001159668;-0.0;2.0
-0.030276179313659668;-0.0;2.0
-0.012090086936950684;-0.0;2.0
0.053681790828704834;-0.0;2.0
0.1304692029953003;-0.0;2.0
0.18085730075836182;-0.0;2.0
0.19004690647125244;-0.0;2.0
0.14202767610549927;-0.0;2.0
0.3327198624610901;-0.0;2.0
0.23113298416137695;-0.0;2.0
0.09156078100204468;-0.0;2.0
-0.09307324886322021;-0.0;2.0
-0.2758979797363281;-0.0;2.0
-0.3827476501464844;-0.0;2.0
-0.38590967655181885;-0.0;2.0
-0.3086894750595093;-0.0;2.0
-0.15876412391662598;-0.0;2.0
0.07529789209365845;-0.0;2.0
0.3920297622680664;-0.0;2.0
0.640950083732605;-0.0;2.0
0.6750168204307556;-0.0;2.0
0.6152794361114502;-0.0;2.0
0.6080218553543091;-0.0;2.0
0.6746616363525391;-0.0;2.0
0.749548077583313;-0.0;2.0
0.8346752524375916;-0.0;1.0
0.4947419762611389;-0.0;2.0
0.5795815587043762;-0.0;2.0
0.7197573184967041;-0.0;2.0
0.7717087864875793;-0.0;2.0
0.7732405066490173;-0.0;2.0
0.7775183320045471;-0.0;2.0
0.7602823376655579;-0.0;2.0
0.6963810324668884;-0.0;2.0
0.6312910914421082;-0.0;2.0
0.6155374050140381;-0.0;2.0
0.5968142151832581;-0.0;2.0
0.5555169582366943;-0.0;2.0
0.5195314884185791;-0.0;2.0
0.523878812789917;-0.0;2.0
0.5306493043899536;-0.0;2.0
0.5877760648727417;-0.0;2.0
0.7146724462509155;-0.0;2.0
0.8381863236427307;-0.0;2.0
0.9067894220352173;-0.0;2.0
0.9725024104118347;-0.0;2.0
0.9994880557060242;-0.0;2.0
0.9999976754188538;-0.0;2.0
1.0;-0.0;2.0
1.0;-0.0;2.0
0.9999433755874634;-0.0;2.0
1.0;-0.0;2.0
1.0;-0.0;2.0
1.0;-0.0;2.0
1.0;-0.0;2.0
1.0;-0.0;2.0
1.0;-0.0;2.0
1.0;-0.0;2.0
1.0;-0.0;2.0
0.9999070167541504;-0.0;2.0
0.816453754901886;-0.0;2.0
-0.27636420726776123;-0.0;2.0
-0.07456910610198975;-0.0;2.0
0.032951414585113525;-0.0;2.0
0.11642789840698242;-0.0;2.0
0.17749929428100586;-0.0;2.0
0.19948416948318481;-0.0;2.0
0.12180531024932861;-0.0;2.0
-0.08376741409301758;-0.0;1.0
-0.3519630432128906;-0.0;1.0
-0.5007426738739014;-0.0;2.0
-0.46315526962280273;-0.0;1.0
-0.351367712020874;-0.0;1.0
-0.313684344291687;-0.0;1.0
-0.3607548475265503;-0.0;1.0
-0.3863714933395386;-0.0;1.0
-0.385669469833374;-0.0;3.0
-0.40556037425994873;-0.0;3.0
-0.4380471706390381;-0.0;1.0
-0.41588473320007324;-0.0;1.0
-0.3396944999694824;-0.0;2.0
-0.2860349416732788;-0.0;2.0
-0.2834789752960205;-0.0;2.0
-0.3488513231277466;-0.0;2.0
-0.44602155685424805;-0.0;2.0
-0.4479537010192871;-0.0;2.0
-0.3087882995605469;-0.0;2.0
-0.11716485023498535;-0.0;2.0
0.01157301664352417;-0.0;2.0
0.04448515176773071;-0.0;2.0
0.04286676645278931;-0.0;2.0
0.059221744537353516;-0.0;2.0
0.08009600639343262;-0.0;2.0
0.11099565029144287;-0.0;2.0
0.17865073680877686;-0.0;2.0
0.2645114064216614;-0.0;2.0
0.2900350093841553;-0.0;2.0
0.22092872858047485;-0.0;2.0
0.1069709062576294;-0.0;2.0
0.007816731929779053;-0.0;2.0
-0.06869494915008545;-0.0;2.0
-0.1032264232635498;-0.0;2.0
-0.06790637969970703;-0.0;2.0
-0.0065038204193115234;-0.0;2.0
0.0270613431930542;-0.0;2.0
0.03484487533569336;-0.0;2.0
0.06333094835281372;-0.0;2.0
0.11498808860778809;-0.0;2.0
0.1507306694984436;-0.0;2.0
0.14132660627365112;-0.0;2.0
0.10635381937026978;-0.0;2.0
0.09237736463546753;-0.0;2.0
0.09738695621490479;-0.0;2.0
0.08430999517440796;-0.0;2.0
0.03144538402557373;-0.0;2.0
-0.0105743408203125;-0.0;2.0
-0.01901376247406006;-0.0;2.0
-0.009462594985961914;-0.0;2.0
-0.02964329719543457;-0.0;2.0
-0.053409576416015625;-0.0;2.0
-0.04379844665527344;-0.0;2.0
0.007243752479553223;-0.0;2.0
0.06092101335525513;-0.0;2.0
0.10481113195419312;-0.0;2.0
0.13685590028762817;-0.0;2.0
0.1573338508605957;-0.0;2.0
0.17701661586761475;-0.0;2.0
0.04385697841644287;-0.0;2.0
-0.04698300361633301;-0.0;2.0
-0.14409565925598145;-0.0;2.0
-0.26916277408599854;-0.0;2.0
-0.3462456464767456;-0.0;2.0
-0.33689582347869873;-0.0;2.0
-0.25423169136047363;-0.0;2.0
-0.13338422775268555;-0.0;2.0
0.06273555755615234;-0.0;2.0
0.377657949924469;-0.0;2.0
0.7113213539123535;-0.0;2.0
0.7557826042175293;-0.0;2.0
0.6706918478012085;-0.0;2.0
0.6934741735458374;-0.0;2.0
0.8123451471328735;-0.0;1.0
0.640217661857605;-0.0;2.0
0.5187068581581116;-0.0;1.0
0.6121921539306641;-0.0;2.0
0.8226196765899658;-0.0;2.0
0.886469841003418;-0.0;2.0
0.7955026626586914;-0.0;2.0
0.6862055659294128;-0.0;2.0
0.6390930414199829;-0.0;2.0
0.5835850238800049;-0.0;2.0
0.5455912351608276;-0.0;2.0
0.6010430455207825;-0.0;2.0
0.6597098708152771;-0.0;2.0
0.6411317586898804;-0.0;2.0
0.5536963939666748;-0.0;2.0
0.49262362718582153;-0.0;2.0
0.48447322845458984;-0.0;2.0
0.5749173164367676;-0.0;2.0
0.7356316447257996;-0.0;2.0
0.8676814436912537;-0.0;2.0
0.9358143210411072;-0.0;2.0
0.9859301447868347;-0.0;2.0
0.9997652769088745;-0.0;2.0
1.0;-0.0;2.0
1.0;-0.0;2.0
1.0;-0.0;2.0
1.0;-0.0;2.0
1.0;-0.0;2.0
1.0;-0.0;2.0
1.0;-0.0;2.0
1.0;-0.0;2.0
1.0;-0.0;2.0
1.0;-0.0;2.0
1.0;-0.0;2.0
1.0;-0.0;2.0
0.9999996423721313;-0.0;2.0
0.9634277820587158;-0.0;2.0
0.3240726590156555;-0.0;2.0
0.03762000799179077;-0.0;2.0
0.004440665245056152;-0.0;2.0
0.024859488010406494;-0.0;2.0
0.07243150472640991;-0.0;2.0
0.1471313238143921;-0.0;1.0
0.21738046407699585;-0.0;1.0
0.18702936172485352;-0.0;1.0
-0.005720257759094238;-0.0;1.0
-0.2807217836380005;-0.0;2.0
-0.45804691314697266;-0.0;1.0
-0.48120641708374023;-0.0;1.0
-0.4307950735092163;-0.0;1.0
-0.39516448974609375;-0.0;1.0
-0.39034104347229004;-0.0;1.0
-0.3714956045150757;-0.0;1.0
-0.3478807210922241;-0.0;1.0
-0.34874212741851807;-0.0;1.0
-0.34689176082611084;-0.0;1.0
-0.32037997245788574;-0.0;2.0
-0.2934727668762207;-0.0;2.0
-0.29067230224609375;-0.0;2.0
-0.29315459728240967;-0.0;2.0
-0.3186103105545044;-0.0;2.0
-0.3757340908050537;-0.0;2.0
-0.38294100761413574;-0.0;2.0
-0.26943063735961914;-0.0;2.0
-0.09258615970611572;-0.0;2.0
0.01934957504272461;-0.0;2.0
0.033986032009124756;-0.0;2.0
0.015095293521881104;-0.0;2.0
0.02256190776824951;-0.0;2.0
0.03667217493057251;-0.0;2.0
0.044937312602996826;-0.0;2.0
0.07564109563827515;-0.0;2.0
0.1464710235595703;-0.0;2.0
0.20594608783721924;-0.0;2.0
0.19758528470993042;-0.0;2.0
0.1313660740852356;-0.0;2.0
0.04689747095108032;-0.0;2.0
-0.03502976894378662;-0.0;2.0
-0.09959399700164795;-0.0;2.0
-0.10323715209960938;-0.0;2.0
-0.05480599403381348;-0.0;2.0
-0.0023227930068969727;-0.0;2.0
0.027875065803527832;-0.0;2.0
0.05653780698776245;-0.0;2.0
0.12014192342758179;-0.0;2.0
0.1883959174156189;-0.0;2.0
0.21781057119369507;-0.0;2.0
0.1839269995689392;-0.0;2.0
0.15031194686889648;-0.0;2.0
0.12322431802749634;-0.0;2.0
0.06388962268829346;-0.0;2.0
-0.03524315357208252;-0.0;2.0
-0.0835425853729248;-0.0;2.0
-0.05993032455444336;-0.0;2.0
-0.02172696590423584;-0.0;2.0
-0.035855650901794434;-0.0;2.0
-0.07343244552612305;-0.0;2.0
-0.0884932279586792;-0.0;2.0
-0.052368760108947754;-0.0;2.0
-0.00027883052825927734;-0.0;2.0
0.06048178672790527;-0.0;2.0
0.11161768436431885;-0.0;2.0
0.1594967246055603;-0.0;2.0
0.34184759855270386;-0.0;2.0
0.08062148094177246;-0.0;2.0
-0.05120372772216797;-0.0;2.0
-0.08460569381713867;-0.0;2.0
-0.10574507713317871;-0.0;2.0
-0.1917111873626709;-0.0;2.0
-0.26763916015625;-0.0;2.0
-0.26531922817230225;-0.0;2.0
-0.19390177726745605;-0.0;2.0
-0.13166677951812744;-0.0;2.0
-0.031345367431640625;-0.0;2.0
0.21537017822265625;-0.0;2.0
0.6430140137672424;-0.0;2.0
0.8006930947303772;-0.0;2.0
0.7606858015060425;-0.0;2.0
0.7873378396034241;-0.0;2.0
0.6918972730636597;-0.0;2.0
0.5533277988433838;-0.0;2.0
0.623982310295105;-0.0;2.0
0.776987612247467;-0.0;2.0
0.804073691368103;-0.0;2.0
0.6705114841461182;-0.0;2.0
0.5693538188934326;-0.0;2.0
0.5356146097183228;-0.0;2.0
0.5171506404876709;-0.0;2.0
0.5322293043136597;-0.0;2.0
0.6304582953453064;-0.0;2.0
0.7122479677200317;-0.0;2.0
0.6865584850311279;-0.0;2.0
0.5879566073417664;-0.0;2.0
0.5260521173477173;-0.0;2.0
0.5283681750297546;-0.0;2.0
0.599812388420105;-0.0;2.0
0.7501660585403442;-0.0;2.0
0.8897652626037598;-0.0;2.0
0.9700281620025635;-0.0;2.0
1.0;-0.0;2.0
1.0;-0.0;2.0
1.0;-0.0;2.0
1.0;-0.0;2.0
1.0;-0.0;2.0
1.0;-0.0;2.0
1.0;-0.0;2.0
1.0;-0.0;2.0
0.9998741745948792;-0.0;2.0
1.0;-0.0;2.0
1.0;-0.0;2.0
1.0;-0.0;2.0
1.0;-0.0;2.0
0.9961683750152588;-0.0;2.0
0.738425076007843;-0.0;2.0
0.4310481548309326;-0.0;2.0
0.22890961170196533;-0.0;2.0
0.11437559127807617;-0.0;2.0
0.0537257194519043;-0.0;2.0
0.06098371744155884;-0.0;1.0
0.1435173749923706;-0.0;1.0
0.25189387798309326;-0.0;1.0
0.25043898820877075;-0.0;1.0
0.06321495771408081;-0.0;1.0
-0.21491611003875732;-0.0;1.0
-0.3983553647994995;-0.0;1.0
-0.4599393606185913;-0.0;1.0
-0.486095666885376;-0.0;1.0
-0.5076396465301514;-0.0;1.0
-0.4918210506439209;-0.0;1.0
-0.43126118183135986;-0.0;1.0
-0.3487890958786011;-0.0;1.0
-0.27287352085113525;-0.0;1.0
-0.20587587356567383;-0.0;2.0
-0.17081081867218018;-0.0;2.0
-0.1903386116027832;-0.0;2.0
-0.25212788581848145;-0.0;2.0
-0.29999661445617676;-0.0;2.0
-0.32618141174316406;-0.0;2.0
-0.348477840423584;-0.0;2.0
-0.3229626417160034;-0.0;2.0
-0.21212613582611084;-0.0;2.0
-0.05806565284729004;-0.0;2.0
0.023910582065582275;-0.0;2.0
0.015125930309295654;-0.0;2.0
-0.018834471702575684;-0.0;2.0
-0.0012753009796142578;-0.0;2.0
0.04331934452056885;-0.0;2.0
0.0626981258392334;-0.0;2.0
0.053668975830078125;-0.0;2.0
0.06615090370178223;-0.0;2.0
0.11625033617019653;-0.0;2.0
0.1519681215286255;-0.0;2.0
0.13345015048980713;-0.0;2.0
0.0694805383682251;-0.0;2.0
-0.012641549110412598;-0.0;2.0
-0.10171651840209961;-0.0;2.0
-0.15248572826385498;-0.0;2.0
-0.12202322483062744;-0.0;2.0
-0.04539203643798828;-0.0;2.0
0.022815048694610596;-0.0;2.0
0.06296974420547485;-0.0;2.0
0.11835259199142456;-0.0;2.0
0.18919360637664795;-0.0;2.0
0.2472347617149353;-0.0;2.0
0.2386353611946106;-0.0;2.0
0.1896379590034485;-0.0;2.0
0.12205713987350464;-0.0;2.0
0.029079735279083252;-0.0;2.0
-0.07687675952911377;-0.0;2.0
-0.11776363849639893;-0.0;2.0
-0.08129632472991943;-0.0;2.0
-0.03283393383026123;-0.0;2.0
-0.038385987281799316;-0.0;2.0
-0.08653795719146729;-0.0;2.0
-0.1128687858581543;-0.0;2.0
-0.07131695747375488;-0.0;2.0
0.013389408588409424;-0.0;2.0
0.10102301836013794;-0.0;2.0
0.14306539297103882;-0.0;2.0
0.15067726373672485;-0.0;2.0
0.2638304829597473;-0.0;2.0
0.02682405710220337;-0.0;2.0
-0.07162642478942871;-0.0;2.0
-0.07363581657409668;-0.0;2.0
-0.0628577470779419;-0.0;2.0
-0.12021017074584961;-0.0;2.0
-0.18334543704986572;-0.0;2.0
-0.1795198917388916;-0.0;2.0
-0.11374616622924805;-0.0;2.0
-0.08790242671966553;-0.0;2.0
-0.06980550289154053;-0.0;2.0
0.08149194717407227;-0.0;2.0
0.50215744972229;-0.0;2.0
0.8166626691818237;-0.0;2.0
0.864936351776123;-0.0;2.0
0.677290141582489;-0.0;2.0
0.5553277134895325;-0.0;2.0
0.5672600865364075;-0.0;2.0
0.603801429271698;-0.0;2.0
0.5796014666557312;-0.0;2.0
0.5336188077926636;-0.0;2.0
0.5148336887359619;-0.0;2.0
0.5026707649230957;-0.0;2.0
0.4871707558631897;-0.0;2.0
0.5299320220947266;-0.0;2.0
0.6569644808769226;-0.0;2.0
0.7431345582008362;-0.0;2.0
0.691071629524231;-0.0;2.0
0.607695460319519;-0.0;2.0
0.5825814008712769;-0.0;2.0
0.5979775190353394;-0.0;2.0
0.601682186126709;-0.0;2.0
0.6903387904167175;-0.0;2.0
0.8404073119163513;-0.0;2.0
1.0;-0.0;2.0
1.0;-0.0;2.0
1.0;-0.0;2.0
1.0;-0.0;2.0
1.0;-0.0;2.0
1.0;-0.0;2.0
1.0;-0.0;2.0
1.0;-0.0;2.0
1.0;-0.0;2.0
1.0;-0.0;2.0
1.0;-0.0;2.0
0.9997550249099731;-0.0;2.0
0.9999901056289673;-0.0;2.0
0.9183613061904907;-0.0;2.0
0.5692986249923706;-0.0;2.0
0.4019981026649475;-0.0;2.0
0.30994993448257446;-0.0;2.0
0.20905649662017822;-0.0;2.0
0.10094475746154785;-0.0;1.0
0.061332643032073975;-0.0;1.0
0.12169700860977173;-0.0;1.0
0.23083919286727905;-0.0;1.0
0.23856258392333984;-0.0;1.0
0.07059752941131592;-0.0;1.0
-0.1892540454864502;-0.0;1.0
-0.37445926666259766;-0.0;1.0
-0.45038509368896484;-0.0;1.0
-0.5037581920623779;-0.0;1.0
-0.5639746189117432;-0.0;1.0
-0.5657161474227905;-0.0;1.0
-0.4700624942779541;-0.0;1.0
-0.30541908740997314;-0.0;1.0
-0.15939676761627197;-0.0;2.0
-0.07139182090759277;-0.0;2.0
-0.06516039371490479;-0.0;2.0
-0.11976051330566406;-0.0;2.0
-0.216896653175354;-0.0;2.0
-0.3077331781387329;-0.0;2.0
-0.34586381912231445;-0.0;2.0
-0.33502888679504395;-0.0;2.0
-0.27461981773376465;-0.0;2.0
-0.16867470741271973;-0.0;2.0
-0.044564127922058105;-0.0;2.0
0.01836639642715454;-0.0;2.0
0.014993727207183838;-0.0;2.0
-0.00880730152130127;-0.0;2.0
0.012524127960205078;-0.0;2.0
0.06715524196624756;-0.0;2.0
0.10606420040130615;-0.0;2.0
0.09599339962005615;-0.0;2.0
0.06674271821975708;-0.0;2.0
0.07575792074203491;-0.0;2.0
0.11146759986877441;-0.0;2.0
0.12362778186798096;-0.0;2.0
0.08363121747970581;-0.0;2.0
-0.0018205642700195312;-0.0;2.0
-0.11193835735321045;-0.0;2.0
-0.18818366527557373;-0.0;2.0
-0.15593135356903076;-0.0;2.0
-0.05347609519958496;-0.0;2.0
0.041597843170166016;-0.0;2.0
0.09362488985061646;-0.0;2.0
0.14627695083618164;-0.0;2.0
0.21414333581924438;-0.0;2.0
0.28288596868515015;-0.0;2.0
0.30330413579940796;-0.0;2.0
0.25861525535583496;-0.0;2.0
0.15525716543197632;-0.0;2.0
0.03813338279724121;-0.0;2.0
-0.05734443664550781;-0.0;2.0
-0.09474825859069824;-0.0;2.0
-0.07464897632598877;-0.0;2.0
-0.04821503162384033;-0.0;2.0
-0.060230135917663574;-0.0;2.0
-0.1020737886428833;-0.0;2.0
-0.10773289203643799;-0.0;2.0
-0.045496225357055664;-0.0;2.0
0.06789934635162354;-0.0;2.0
0.17121201753616333;-0.0;2.0
0.20723271369934082;-0.0;2.0
0.16157203912734985;-0.0;2.0
0.12081366777420044;-0.0;2.0
-0.03316926956176758;-0.0;2.0
-0.0782393217086792;-0.0;2.0
-0.06911361217498779;-0.0;2.0
-0.05549323558807373;-0.0;2.0
-0.08137738704681396;-0.0;2.0
-0.10956799983978271;-0.0;2.0
-0.09749782085418701;-0.0;2.0
-0.036145925521850586;-0.0;2.0
0.007591128349304199;-0.0;2.0
0.03783696889877319;-0.0;2.0
0.13172757625579834;-0.0;1.0
0.4360074996948242;-0.0;2.0
0.6457927227020264;-0.0;2.0
0.5178585648536682;-0.0;2.0
0.48923051357269287;-0.0;2.0
0.49354231357574463;-0.0;2.0
0.48734259605407715;-0.0;2.0
0.5120227336883545;-0.0;2.0
0.5355793237686157;-0.0;2.0
0.5029898285865784;-0.0;2.0
0.43599218130111694;-0.0;2.0
0.469024658203125;-0.0;2.0
0.6288406252861023;-0.0;2.0
0.7516655921936035;-0.0;2.0
0.6915679574012756;-0.0;2.0
0.6011168956756592;-0.0;2.0
0.5911678075790405;-0.0;2.0
0.6376529932022095;-0.0;2.0
0.6513910889625549;-0.0;2.0
0.6951212286949158;-0.0;2.0
1.0;-0.0;2.0
1.0;-0.0;2.0
1.0;-0.0;2.0
1.0;-0.0;2.0
0.9999999403953552;-0.0;2.0
1.0;-0.0;2.0
1.0;-0.0;2.0
1.0;-0.0;2.0
1.0;-0.0;2.0
1.0;-0.0;2.0
1.0;-0.0;2.0
1.0;-0.0;2.0
1.0;-0.0;2.0
1.0;-0.0;2.0
1.0;-0.0;2.0
0.30696195363998413;-0.0;2.0
0.3106078505516052;-0.0;2.0
0.264112651348114;-0.0;1.0
0.15164273977279663;-0.0;1.0
0.06529378890991211;-0.0;1.0
0.07715439796447754;-0.0;1.0
0.15442585945129395;-0.0;1.0
0.15943676233291626;-0.0;1.0
0.024178385734558105;-0.0;1.0
-0.20820510387420654;-0.0;1.0
-0.4135056734085083;-0.0;1.0
-0.5045987367630005;-0.0;2.0
-0.5426151752471924;-0.0;2.0
-0.5836325883865356;-0.0;2.0
-0.5833585262298584;-0.0;1.0
-0.4629368782043457;-0.0;1.0
-0.24733686447143555;-0.0;2.0
-0.08211886882781982;-0.0;2.0
-0.025363802909851074;-0.0;2.0
-0.06100785732269287;-0.0;2.0
-0.12918329238891602;-0.0;2.0
-0.22488725185394287;-0.0;2.0
-0.31482410430908203;-0.0;2.0
-0.3301013708114624;-0.0;2.0
-0.2749418020248413;-0.0;2.0
-0.19960641860961914;-0.0;2.0
-0.1187894344329834;-0.0;2.0
-0.03800666332244873;-0.0;2.0
0.01664257049560547;-0.0;2.0
0.044211626052856445;-0.0;2.0
0.04407006502151489;-0.0;2.0
0.035249948501586914;-0.0;2.0
0.04618340730667114;-0.0;2.0
0.08743536472320557;-0.0;2.0
0.12386542558670044;-0.0;2.0
0.12067538499832153;-0.0;2.0
0.09777402877807617;-0.0;2.0
0.08937603235244751;-0.0;2.0
0.09699094295501709;-0.0;2.0
0.08056825399398804;-0.0;2.0
0.0032426118850708008;-0.0;2.0
-0.1183544397354126;-0.0;2.0
-0.20289075374603271;-0.0;2.0
-0.16579163074493408;-0.0;2.0
-0.0505213737487793;-0.0;2.0
0.06371033191680908;-0.0;2.0
0.1394081711769104;-0.0;2.0
0.21645492315292358;-0.0;2.0
0.3117292523384094;-0.0;2.0
0.4009823799133301;-0.0;2.0
0.44073009490966797;-0.0;2.0
0.40183568000793457;-0.0;2.0
0.27876490354537964;-0.0;2.0
0.12916630506515503;-0.0;2.0
0.017336130142211914;-0.0;2.0
-0.03457772731781006;-0.0;2.0
-0.032731056213378906;-0.0;2.0
-0.0321042537689209;-0.0;2.0
-0.05808520317077637;-0.0;2.0
-0.09107625484466553;-0.0;2.0
-0.0698169469833374;-0.0;2.0
0.005295455455780029;-0.0;2.0
0.11488926410675049;-0.0;2.0
0.20963293313980103;-0.0;2.0
0.25219523906707764;-0.0;2.0
0.19537365436553955;-0.0;2.0
-0.03195691108703613;-0.0;2.0
-0.12671279907226562;-0.0;2.0
-0.12280547618865967;-0.0;2.0
-0.09132695198059082;-0.0;2.0
-0.06115281581878662;-0.0;2.0
-0.04217565059661865;-0.0;2.0
-0.02717721462249756;-0.0;2.0
-0.020209431648254395;-0.0;2.0
0.021103978157043457;-0.0;2.0
0.10692983865737915;-0.0;1.0
0.22517895698547363;-0.0;1.0
0.6577478051185608;-0.0;2.0
0.5153578519821167;-0.0;2.0
0.47864067554473877;-0.0;2.0
0.5136159658432007;-0.0;2.0
0.5431432127952576;-0.0;2.0
0.5823668837547302;-0.0;2.0
0.5846540331840515;-0.0;2.0
0.5199196338653564;-0.0;2.0
0.439980149269104;-0.0;2.0
0.46648889780044556;-0.0;2.0
0.5910437107086182;-0.0;2.0
0.6888111233711243;-0.0;2.0
0.669268012046814;-0.0;2.0
0.6066582202911377;-0.0;2.0
0.5917401313781738;-0.0;2.0
0.6491631269454956;-0.0;2.0
0.727563738822937;-0.0;2.0
0.824796736240387;-0.0;2.0
0.9967591762542725;-0.0;2.0
0.9997106790542603;-0.0;2.0
1.0;-0.0;2.0
1.0;-0.0;2.0
1.0;-0.0;2.0
1.0;-0.0;2.0
0.9999998211860657;-0.0;2.0
0.9999995231628418;-0.0;2.0
0.9999986886978149;-0.0;2.0
1.0;-0.0;2.0
1.0;-0.0;2.0
1.0;-0.0;2.0
1.0;-0.0;2.0
1.0;-0.0;2.0
1.0;-0.0;2.0
1.0;-0.0;2.0
0.9968910813331604;-0.0;2.0
0.24812370538711548;-0.0;1.0
0.16343414783477783;-0.0;1.0
0.06609690189361572;-0.0;1.0
0.04110521078109741;-0.0;1.0
0.07655948400497437;-0.0;1.0
0.06918513774871826;-0.0;1.0
-0.04154694080352783;-0.0;1.0
-0.2559303045272827;-0.0;1.0
-0.49707329273223877;-0.0;1.0
-0.6154382228851318;-0.0;2.0
-0.6276530027389526;-0.0;2.0
-0.6257688999176025;-0.0;2.0
-0.5980619192123413;-0.0;2.0
-0.45815181732177734;-0.0;1.0
-0.22101664543151855;-0.0;2.0
-0.06261599063873291;-0.0;2.0
-0.03480386734008789;-0.0;2.0
-0.0964592695236206;-0.0;2.0
-0.17734861373901367;-0.0;2.0
-0.27134156227111816;-0.0;2.0
-0.32797157764434814;-0.0;2.0
-0.2905460596084595;-0.0;2.0
-0.19148540496826172;-0.0;2.0
-0.10667586326599121;-0.0;2.0
-0.0351715087890625;-0.0;2.0
0.01759481430053711;-0.0;2.0
0.05861985683441162;-0.0;2.0
0.09317845106124878;-0.0;2.0
0.09469252824783325;-0.0;2.0
0.04565274715423584;-0.0;2.0
-0.0027778148651123047;-0.0;2.0
0.019178926944732666;-0.0;2.0
0.10032737255096436;-0.0;2.0
0.15048515796661377;-0.0;2.0
0.12244874238967896;-0.0;2.0
0.06591260433197021;-0.0;2.0
0.05309218168258667;-0.0;2.0
0.057302117347717285;-0.0;2.0
0.009174227714538574;-0.0;2.0
-0.10010004043579102;-0.0;2.0
-0.18711936473846436;-0.0;2.0
-0.16873109340667725;-0.0;2.0
-0.06464695930480957;-0.0;2.0
0.05491304397583008;-0.0;2.0
0.14552688598632812;-0.0;2.0
0.23747438192367554;-0.0;2.0
0.3645637035369873;-0.0;2.0
0.4943394660949707;-0.0;2.0
0.5756018757820129;-0.0;2.0
0.5643114447593689;-0.0;2.0
0.4595096707344055;-0.0;2.0
0.2971292734146118;-0.0;2.0
0.15763801336288452;-0.0;2.0
0.06443411111831665;-0.0;2.0
0.03974026441574097;-0.0;2.0
0.022792518138885498;-0.0;2.0
-0.009022951126098633;-0.0;2.0
-0.0446242094039917;-0.0;2.0
-0.024765968322753906;-0.0;2.0
0.045022666454315186;-0.0;2.0
0.14077430963516235;-0.0;2.0
0.21828031539916992;-0.0;2.0
0.26978713274002075;-0.0;2.0
-0.14917290210723877;-0.0;2.0
-0.23896801471710205;-0.0;2.0
-0.20865511894226074;-0.0;2.0
-0.12383437156677246;-0.0;2.0
-0.03889775276184082;-0.0;2.0
0.03318279981613159;-0.0;2.0
0.08033859729766846;-0.0;2.0
0.0846216082572937;-0.0;2.0
0.10759222507476807;-0.0;2.0
0.6631711721420288;-0.0;2.0
0.5541634559631348;-0.0;2.0
0.5581923723220825;-0.0;2.0
0.6496175527572632;-0.0;2.0
0.711743950843811;-0.0;2.0
0.706680417060852;-0.0;2.0
0.6369451284408569;-0.0;2.0
0.5641382336616516;-0.0;2.0
0.5382575988769531;-0.0;2.0
0.5544263124465942;-0.0;2.0
0.5789406895637512;-0.0;2.0
0.5786758661270142;-0.0;2.0
0.5794370174407959;-0.0;2.0
0.6008907556533813;-0.0;2.0
0.6155714988708496;-0.0;2.0
0.671953558921814;-0.0;2.0
0.7670009136199951;-0.0;2.0
0.9826335906982422;-0.0;2.0
0.9804614782333374;-0.0;2.0
0.9948374032974243;-0.0;2.0
0.9999628067016602;-0.0;2.0
1.0;-0.0;2.0
1.0;-0.0;2.0
1.0;-0.0;2.0
0.9999927282333374;-0.0;2.0
0.9976134896278381;-0.0;2.0
0.998792290687561;-0.0;2.0
0.9999918937683105;-0.0;2.0
1.0;-0.0;2.0
1.0;-0.0;2.0
1.0;-0.0;2.0
1.0;-0.0;2.0
1.0;-0.0;2.0
1.0;-0.0;2.0
1.0;-0.0;2.0
0.13526862859725952;-0.0;1.0
0.0808333158493042;-0.0;1.0
0.0530928373336792;-0.0;1.0
0.045561373233795166;-0.0;1.0
0.00432741641998291;-0.0;1.0
-0.10862958431243896;-0.0;1.0
-0.3232860565185547;-0.0;1.0
-0.5773718357086182;-0.0;1.0
-0.7148278951644897;-0.0;2.0
-0.7318426370620728;-0.0;2.0
-0.7104865312576294;-0.0;2.0
-0.6625759601593018;-0.0;2.0
-0.502549409866333;-0.0;2.0
-0.249924898147583;-0.0;2.0
-0.07581639289855957;-0.0;2.0
-0.03953540325164795;-0.0;2.0
-0.12315940856933594;-0.0;2.0
-0.2500617504119873;-0.0;2.0
-0.3537023067474365;-0.0;2.0
-0.3626515865325928;-0.0;2.0
-0.287453293800354;-0.0;2.0
-0.17048072814941406;-0.0;2.0
-0.05907082557678223;-0.0;2.0
0.03999984264373779;-0.0;2.0
0.09885138273239136;-0.0;2.0
0.1296045184135437;-0.0;2.0
0.14035332202911377;-0.0;2.0
0.11183547973632812;-0.0;2.0
0.03684687614440918;-0.0;2.0
-0.029254436492919922;-0.0;2.0
-0.020361781120300293;-0.0;2.0
0.05837792158126831;-0.0;2.0
0.1261063814163208;-0.0;2.0
0.11101722717285156;-0.0;2.0
0.04419231414794922;-0.0;2.0
0.014551281929016113;-0.0;2.0
0.03350222110748291;-0.0;2.0
0.028123021125793457;-0.0;2.0
-0.04238879680633545;-0.0;2.0
-0.11997973918914795;-0.0;2.0
-0.1364349126815796;-0.0;2.0
-0.07261848449707031;-0.0;2.0
0.03279060125350952;-0.0;2.0
0.12392455339431763;-0.0;2.0
0.19557636976242065;-0.0;2.0
0.3088655471801758;-0.0;2.0
0.4736343026161194;-0.0;1.0
0.6241846680641174;-0.0;2.0
0.6465440988540649;-0.0;2.0
0.5522032976150513;-0.0;2.0
0.41814106702804565;-0.0;2.0
0.305822491645813;-0.0;2.0
0.1975095272064209;-0.0;2.0
0.13849389553070068;-0.0;2.0
0.10745370388031006;-0.0;2.0
0.0738338828086853;-0.0;2.0
0.02007424831390381;-0.0;2.0
0.011474549770355225;-0.0;2.0
0.07055461406707764;-0.0;2.0
0.17566293478012085;-0.0;2.0
0.2600206136703491;-0.0;2.0
0.3008907437324524;-0.0;1.0
0.0006797313690185547;-0.0;2.0
-0.22559571266174316;-0.0;2.0
-0.32821691036224365;-0.0;2.0
-0.2974855899810791;-0.0;2.0
-0.16688096523284912;-0.0;2.0
-0.017751336097717285;-0.0;2.0
0.10222667455673218;-0.0;2.0
0.16256016492843628;-0.0;2.0
0.1922086477279663;-0.0;2.0
0.5588021278381348;-0.0;1.0
0.5541284084320068;-0.0;2.0
0.6869936585426331;-0.0;2.0
0.8282901644706726;-0.0;2.0
0.8516387939453125;-0.0;2.0
0.7455892562866211;-0.0;2.0
0.62279212474823;-0.0;2.0
0.6115362644195557;-0.0;2.0
0.6700364947319031;-0.0;2.0
0.6950240135192871;-0.0;2.0
0.6376916170120239;-0.0;2.0
0.5393136739730835;-0.0;2.0
0.5203931331634521;-0.0;2.0
0.6088473796844482;-0.0;2.0
0.7007002234458923;-0.0;2.0
0.7525722980499268;-0.0;2.0
0.7646987438201904;-0.0;2.0
0.9753430485725403;-0.0;2.0
0.9847854971885681;-0.0;2.0
0.9902669191360474;-0.0;2.0
0.9959613680839539;-0.0;2.0
0.9995636940002441;-0.0;2.0
0.9999826550483704;-0.0;2.0
1.0;-0.0;2.0
1.0;-0.0;2.0
0.9999417066574097;-0.0;2.0
1.0;-0.0;2.0
1.0;-0.0;2.0
1.0;-0.0;2.0
1.0;-0.0;2.0
1.0;-0.0;2.0
0.9999978542327881;-0.0;2.0
0.9997953176498413;-0.0;2.0
0.9994580745697021;-0.0;2.0
0.999001145362854;-0.0;2.0
0.9993789196014404;-0.0;2.0
0.999919593334198;-0.0;2.0
0.9999999403953552;-0.0;2.0
1.0;-0.0;2.0
1.0;-0.0;2.0
1.0;-0.0;2.0
1.0;-0.0;2.0
1.0;-0.0;2.0
0.07112866640090942;-0.0;1.0
0.07354795932769775;-0.0;1.0
0.04868274927139282;-0.0;1.0
-0.0030139684677124023;-0.0;1.0
-0.08314323425292969;-0.0;1.0
-0.20482957363128662;-0.0;1.0
-0.4039580821990967;-0.0;1.0
-0.6201373338699341;-0.0;1.0
-0.7437479496002197;-0.0;2.0
-0.7790944576263428;-0.0;2.0
-0.7741492986679077;-0.0;2.0
-0.7207168340682983;-0.0;2.0
-0.5359971523284912;-0.0;2.0
-0.2751119136810303;-0.0;2.0
-0.0903017520904541;-0.0;2.0
-0.048198699951171875;-0.0;2.0
-0.15666306018829346;-0.0;2.0
-0.3391772508621216;-0.0;2.0
-0.4368053674697876;-0.0;2.0
-0.39912164211273193;-0.0;2.0
-0.32499945163726807;-0.0;2.0
-0.23313450813293457;-0.0;2.0
-0.102486252784729;-0.0;2.0
0.03761422634124756;-0.0;2.0
0.13228970766067505;-0.0;2.0
0.1731020212173462;-0.0;2.0
0.16684162616729736;-0.0;2.0
0.11007541418075562;-0.0;2.0
0.036699891090393066;-0.0;2.0
-0.012888550758361816;-0.0;2.0
-0.015558719635009766;-0.0;2.0
0.019877493381500244;-0.0;2.0
0.06819593906402588;-0.0;2.0
0.07353395223617554;-0.0;2.0
0.036284446716308594;-0.0;2.0
0.01693660020828247;-0.0;2.0
0.049958646297454834;-0.0;2.0
0.06496012210845947;-0.0;2.0
0.01899176836013794;-0.0;2.0
-0.04348301887512207;-0.0;2.0
-0.06679391860961914;-0.0;2.0
-0.02917802333831787;-0.0;2.0
0.059420108795166016;-0.0;2.0
0.14082098007202148;-0.0;2.0
0.16846436262130737;-0.0;2.0
0.2208014726638794;-0.0;1.0
0.3690602779388428;-0.0;2.0
0.5498260259628296;-0.0;2.0
0.6007362604141235;-0.0;2.0
0.5252045392990112;-0.0;2.0
0.4364810585975647;-0.0;2.0
0.3717558979988098;-0.0;2.0
0.29367536306381226;-0.0;2.0
0.23380035161972046;-0.0;2.0
0.20094138383865356;-0.0;2.0
0.15591251850128174;-0.0;2.0
0.07683879137039185;-0.0;2.0
0.03900742530822754;-0.0;2.0
0.10070890188217163;-0.0;2.0
0.23333817720413208;-0.0;2.0
0.34806156158447266;-0.0;2.0
-0.04843032360076904;-0.0;2.0
-0.25570058822631836;-0.0;2.0
-0.349969744682312;-0.0;2.0
-0.31730151176452637;-0.0;2.0
-0.18137073516845703;-0.0;2.0
-0.009594202041625977;-0.0;2.0
0.14536535739898682;-0.0;2.0
0.22356319427490234;-0.0;2.0
0.4862020015716553;-0.0;1.0
0.7225678563117981;-0.0;2.0
0.868338942527771;-0.0;2.0
0.8371831774711609;-0.0;2.0
0.6569151878356934;-0.0;2.0
0.5695874691009521;-0.0;2.0
0.6307843923568726;-0.0;2.0
0.7358728647232056;-0.0;2.0
0.7741434574127197;-0.0;2.0
0.7394790053367615;-0.0;2.0
0.6397700905799866;-0.0;2.0
0.5814013481140137;-0.0;2.0
0.6289085149765015;-0.0;2.0
0.7669811844825745;-0.0;2.0
0.855195164680481;-0.0;2.0
0.7848433256149292;-0.0;2.0
0.9458385705947876;-0.0;2.0
0.9706599116325378;-0.0;2.0
0.987248420715332;-0.0;2.0
0.9963802695274353;-0.0;2.0
0.9987502098083496;-0.0;2.0
0.9995965957641602;-0.0;2.0
0.9999203681945801;-0.0;2.0
1.0;-0.0;2.0
1.0;-0.0;2.0
1.0;-0.0;2.0
1.0;-0.0;2.0
1.0;-0.0;2.0
1.0;-0.0;2.0
1.0;-0.0;2.0
0.9982030391693115;-0.0;2.0
1.0;-0.0;2.0
1.0;-0.0;2.0
1.0;-0.0;2.0
1.0;-0.0;2.0
1.0;-0.0;2.0
1.0;-0.0;2.0
1.0;-0.0;2.0
1.0;-0.0;2.0
1.0;-0.0;2.0
1.0;-0.0;2.0
1.0;-0.0;2.0
1.0;-0.0;2.0
0.9999434947967529;-0.0;2.0
0.9998224973678589;-0.0;2.0
0.999704122543335;-0.0;2.0
0.9997495412826538;-0.0;2.0
0.9993659853935242;-0.0;2.0
0.9990304112434387;-0.0;2.0
0.9997028112411499;-0.0;2.0
0.9999896287918091;-0.0;2.0
0.9999995827674866;-0.0;2.0
1.0;-0.0;2.0
1.0;-0.0;2.0
1.0;-0.0;2.0
0.013239085674285889;-0.0;1.0
-0.03389942646026611;-0.0;1.0
-0.11544394493103027;-0.0;1.0
-0.21592986583709717;-0.0;1.0
-0.35045933723449707;-0.0;1.0
-0.5099670886993408;-0.0;1.0
-0.6487804651260376;-0.0;1.0
-0.732917308807373;-0.0;2.0
-0.7719430923461914;-0.0;2.0
-0.7760356664657593;-0.0;2.0
-0.7164545059204102;-0.0;1.0
-0.5040016174316406;-0.0;2.0
-0.27504217624664307;-0.0;2.0
-0.13707280158996582;-0.0;2.0
-0.11741209030151367;-0.0;2.0
-0.2199864387512207;-0.0;2.0
-0.3834240436553955;-0.0;2.0
-0.43706345558166504;-0.0;2.0
-0.3919934034347534;-0.0;2.0
-0.36505019664764404;-0.0;2.0
-0.33462226390838623;-0.0;2.0
-0.20361793041229248;-0.0;2.0
-0.018939495086669922;-0.0;2.0
0.118990957736969;-0.0;2.0
0.17501813173294067;-0.0;2.0
0.1705700159072876;-0.0;2.0
0.11609530448913574;-0.0;2.0
0.05917388200759888;-0.0;2.0
0.010728240013122559;-0.0;2.0
-0.01912212371826172;-0.0;2.0
-0.024209141731262207;-0.0;2.0
0.014756500720977783;-0.0;2.0
0.042916834354400635;-0.0;2.0
0.04227924346923828;-0.0;2.0
0.05089068412780762;-0.0;2.0
0.09165745973587036;-0.0;2.0
0.08865398168563843;-0.0;2.0
0.035475730895996094;-0.0;2.0
-0.002295851707458496;-0.0;2.0
0.00903177261352539;-0.0;2.0
0.058662474155426025;-0.0;2.0
0.14607632160186768;-0.0;2.0
0.23132389783859253;-0.0;2.0
0.23941028118133545;-0.0;1.0
0.43925684690475464;-0.0;2.0
0.5127730369567871;-0.0;2.0
0.47402024269104004;-0.0;2.0
0.39965730905532837;-0.0;2.0
0.33364588022232056;-0.0;2.0
0.2843434810638428;-0.0;2.0
0.266324520111084;-0.0;2.0
0.26194095611572266;-0.0;2.0
0.2135831117630005;-0.0;2.0
0.14355182647705078;-0.0;2.0
0.12590384483337402;-0.0;2.0
0.2083832025527954;-0.0;2.0
0.33301788568496704;-0.0;2.0
0.4394189715385437;-0.0;2.0
0.1780751347541809;-0.0;1.0
-0.06889462471008301;-0.0;2.0
-0.26264679431915283;-0.0;2.0
-0.33208155632019043;-0.0;2.0
-0.2794111967086792;-0.0;2.0
-0.15557658672332764;-0.0;2.0
-0.006005525588989258;-0.0;2.0
0.15995687246322632;-0.0;2.0
0.6303221583366394;-0.0;1.0
0.7322967052459717;-0.0;2.0
0.7140595316886902;-0.0;2.0
0.590659499168396;-0.0;2.0
0.5484508275985718;-0.0;2.0
0.6174683570861816;-0.0;2.0
0.7338032126426697;-0.0;2.0
0.7814740538597107;-0.0;2.0
0.779356837272644;-0.0;2.0
0.716368556022644;-0.0;2.0
0.6569888591766357;-0.0;2.0
0.6585835218429565;-0.0;2.0
0.8076478838920593;-0.0;2.0
0.9210819602012634;-0.0;2.0
0.8398839831352234;-0.0;2.0
0.9601284861564636;-0.0;2.0
0.9708074927330017;-0.0;2.0
0.9782213568687439;-0.0;2.0
0.9928513169288635;-0.0;2.0
0.9980367422103882;-0.0;2.0
0.9994251728057861;-0.0;2.0
0.9998798370361328;-0.0;2.0
0.9999997615814209;-0.0;2.0
1.0;-0.0;2.0
1.0;-0.0;2.0
1.0;-0.0;2.0
1.0;-0.0;2.0
0.9990821480751038;-0.0;2.0
1.0;-0.0;2.0
1.0;-0.0;2.0
1.0;-0.0;2.0
1.0;-0.0;2.0
1.0;-0.0;2.0
1.0;-0.0;2.0
1.0;-0.0;2.0
1.0;-0.0;2.0
1.0;-0.0;2.0
1.0;-0.0;2.0
1.0;-0.0;2.0
1.0;-0.0;2.0
1.0;-0.0;2.0
0.9999989867210388;-0.0;2.0
0.9999974966049194;-0.0;2.0
0.9999889135360718;-0.0;2.0
0.9993138313293457;-0.0;2.0
0.9980872273445129;-0.0;2.0
0.9963707327842712;-0.0;2.0
0.996818482875824;-0.0;2.0
0.9981833696365356;-0.0;2.0
0.9992369413375854;-0.0;2.0
0.9997962713241577;-0.0;2.0
0.9999433159828186;-0.0;2.0
0.9999831914901733;-0.0;2.0
0.9999986886978149;-0.0;2.0
1.0;-0.0;2.0
1.0;-0.0;2.0
-0.09990167617797852;-0.0;1.0
-0.19044041633605957;-0.0;1.0
-0.29145288467407227;-0.0;1.0
-0.38448357582092285;-0.0;1.0
-0.4848567247390747;-0.0;1.0
-0.5847712755203247;-0.0;1.0
-0.6567755937576294;-0.0;1.0
-0.7079610824584961;-0.0;1.0
-0.7421716451644897;-0.0;1.0
-0.7386250495910645;-0.0;1.0
-0.6452603340148926;-0.0;1.0
-0.4247814416885376;-0.0;1.0
-0.270121693611145;-0.0;2.0
-0.2227025032043457;-0.0;2.0
-0.2300097942352295;-0.0;2.0
-0.26772165298461914;-0.0;2.0
-0.308978796005249;-0.0;2.0
-0.3136190176010132;-0.0;2.0
-0.3172142505645752;-0.0;2.0
-0.3630484342575073;-0.0;2.0
-0.3941138982772827;-0.0;2.0
-0.2729276418685913;-0.0;2.0
-0.06567347049713135;-0.0;2.0
0.09423184394836426;-0.0;2.0
0.15369397401809692;-0.0;2.0
0.1528884768486023;-0.0;2.0
0.11864656209945679;-0.0;2.0
0.0706983208656311;-0.0;2.0
-0.006298661231994629;-0.0;2.0
-0.07372570037841797;-0.0;2.0
-0.08830809593200684;-0.0;2.0
-0.03453230857849121;-0.0;2.0
0.014137208461761475;-0.0;2.0
0.04203653335571289;-0.0;2.0
0.0827370285987854;-0.0;2.0
0.1225387454032898;-0.0;2.0
0.08759218454360962;-0.0;2.0
0.02320408821105957;-0.0;2.0
0.0219765305519104;-0.0;2.0
0.08459174633026123;-0.0;2.0
0.16053247451782227;-0.0;1.0
0.2387062907218933;-0.0;1.0
0.31733137369155884;-0.0;1.0
0.3752378225326538;-0.0;2.0
0.4713936448097229;-0.0;2.0
0.46726566553115845;-0.0;2.0
0.36523985862731934;-0.0;2.0
0.24701052904129028;-0.0;2.0
0.18642854690551758;-0.0;2.0
0.19482970237731934;-0.0;2.0
0.22648251056671143;-0.0;2.0
0.21670621633529663;-0.0;2.0
0.2111157774925232;-0.0;2.0
0.2579156756401062;-0.0;2.0
0.36817944049835205;-0.0;2.0
0.4576173424720764;-0.0;2.0
0.4909062385559082;-0.0;2.0
0.16703790426254272;-0.0;2.0
-0.060271263122558594;-0.0;2.0
-0.2536139488220215;-0.0;2.0
-0.3297743797302246;-0.0;2.0
-0.2581348419189453;-0.0;2.0
-0.11279726028442383;-0.0;2.0
0.03452533483505249;-0.0;2.0
0.6500086784362793;-0.0;2.0
0.6012841463088989;-0.0;2.0
0.625243067741394;-0.0;2.0
0.7334567308425903;-0.0;2.0
0.7647610306739807;-0.0;2.0
0.7035398483276367;-0.0;2.0
0.6188911199569702;-0.0;2.0
0.5873818397521973;-0.0;2.0
0.6307909488677979;-0.0;2.0
0.8031587600708008;-0.0;2.0
0.9172161817550659;-0.0;2.0
0.9460723400115967;-0.0;2.0
0.9661363363265991;-0.0;2.0
0.9765642285346985;-0.0;2.0
0.9737048149108887;-0.0;2.0
0.9817869067192078;-0.0;2.0
0.9927777647972107;-0.0;2.0
0.9982423186302185;-0.0;2.0
1.0;-0.0;2.0
1.0;-0.0;2.0
1.0;-0.0;2.0
1.0;-0.0;2.0
1.0;-0.0;2.0
1.0;-0.0;2.0
1.0;-0.0;2.0
1.0;-0.0;2.0
1.0;-0.0;2.0
1.0;-0.0;2.0
1.0;-0.0;2.0
1.0;-0.0;2.0
1.0;-0.0;2.0
1.0;-0.0;2.0
1.0;-0.0;2.0
1.0;-0.0;2.0
0.9999971985816956;-0.0;2.0
0.9996886253356934;-0.0;2.0
0.9998524785041809;-0.0;2.0
0.9999650716781616;-0.0;2.0
0.9999364018440247;-0.0;2.0
0.9990471005439758;-0.0;2.0
0.9951070547103882;-0.0;2.0
0.9881908297538757;-0.0;2.0
0.9759465456008911;-0.0;2.0
0.977192759513855;-0.0;2.0
0.9944670796394348;-0.0;2.0
0.9993229508399963;-0.0;2.0
0.9997585415840149;-0.0;2.0
0.999757707118988;-0.0;2.0
0.9998396039009094;-0.0;2.0
0.9999769926071167;-0.0;2.0
0.9999999403953552;-0.0;2.0
1.0;-0.0;2.0
-0.33677613735198975;-0.0;1.0
-0.45343875885009766;-0.0;1.0
-0.5163902044296265;-0.0;1.0
-0.5645433664321899;-0.0;1.0
-0.615142822265625;-0.0;1.0
-0.6594022512435913;-0.0;1.0
-0.6901220083236694;-0.0;1.0
-0.7015429735183716;-0.0;1.0
-0.65694260597229;-0.0;1.0
-0.5010114908218384;-0.0;1.0
-0.32055771350860596;-0.0;1.0
-0.25855469703674316;-0.0;2.0
-0.2945934534072876;-0.0;2.0
-0.3172004222869873;-0.0;2.0
-0.2859783172607422;-0.0;2.0
-0.22559809684753418;-0.0;2.0
-0.1913670301437378;-0.0;2.0
-0.21798670291900635;-0.0;2.0
-0.29053938388824463;-0.0;2.0
-0.3335961103439331;-0.0;2.0
-0.25467801094055176;-0.0;2.0
-0.0987236499786377;-0.0;2.0
0.03310048580169678;-0.0;2.0
0.07907426357269287;-0.0;2.0
0.07620888948440552;-0.0;2.0
0.048808753490448;-0.0;2.0
0.003421485424041748;-0.0;2.0
-0.07186901569366455;-0.0;2.0
-0.1301182508468628;-0.0;2.0
-0.1318758726119995;-0.0;2.0
-0.0780487060546875;-0.0;2.0
-0.02119278907775879;-0.0;2.0
0.029693186283111572;-0.0;2.0
0.08662295341491699;-0.0;2.0
0.10790467262268066;-0.0;2.0
0.06271612644195557;-0.0;2.0
0.02056300640106201;-0.0;2.0
0.05598580837249756;-0.0;2.0
0.14030981063842773;-0.0;2.0
0.21081340312957764;-0.0;1.0
0.25664663314819336;-0.0;1.0
0.40245217084884644;-0.0;2.0
0.48385411500930786;-0.0;2.0
0.45681601762771606;-0.0;2.0
0.3033040165901184;-0.0;2.0
0.15104329586029053;-0.0;2.0
0.07282912731170654;-0.0;2.0
0.0668211579322815;-0.0;2.0
0.09546780586242676;-0.0;2.0
0.12567567825317383;-0.0;2.0
0.193520188331604;-0.0;2.0
0.3290073871612549;-0.0;2.0
0.5000395774841309;-0.0;2.0
0.5593806505203247;-0.0;2.0
0.4951462745666504;-0.0;2.0
0.11406069993972778;-0.0;2.0
-0.07291805744171143;-0.0;2.0
-0.2551044225692749;-0.0;2.0
-0.35104596614837646;-0.0;2.0
-0.29336440563201904;-0.0;2.0
-0.10746240615844727;-0.0;2.0
0.6831480264663696;-0.0;2.0
0.7820389866828918;-0.0;2.0
0.7619444131851196;-0.0;2.0
0.5895493030548096;-0.0;2.0
0.47194695472717285;-0.0;2.0
0.4852445721626282;-0.0;2.0
0.6305454969406128;-0.0;2.0
0.8517270684242249;-0.0;2.0
0.9184721112251282;-0.0;2.0
0.8833282589912415;-0.0;2.0
0.9090031385421753;-0.0;2.0
0.9560545682907104;-0.0;2.0
0.9785169959068298;-0.0;2.0
0.9803212881088257;-0.0;2.0
0.9789047837257385;-0.0;2.0
0.9814056158065796;-0.0;2.0
0.994297444820404;-0.0;2.0
0.9999996423721313;-0.0;2.0
1.0;-0.0;2.0
1.0;-0.0;2.0
1.0;-0.0;2.0
1.0;-0.0;2.0
1.0;-0.0;2.0
1.0;-0.0;2.0
1.0;-0.0;2.0
1.0;-0.0;2.0
1.0;-0.0;2.0
1.0;-0.0;2.0
1.0;-0.0;2.0
1.0;-0.0;2.0
1.0;-0.0;2.0
0.9999998807907104;-0.0;2.0
0.9995822906494141;-0.0;2.0
0.9987959861755371;-0.0;2.0
0.9970861077308655;-0.0;2.0
0.9978811740875244;-0.0;2.0
0.9996290802955627;-0.0;2.0
0.9995599985122681;-0.0;2.0
0.9957576394081116;-0.0;2.0
0.9843282103538513;-0.0;2.0
0.9716602563858032;-0.0;2.0
0.9555976390838623;-0.0;2.0
0.9610981345176697;-0.0;2.0
0.9903361797332764;-0.0;2.0
0.9989592432975769;-0.0;2.0
0.9994484186172485;-0.0;2.0
0.9993939995765686;-0.0;2.0
0.9996699690818787;-0.0;2.0
0.9998956918716431;-0.0;2.0
0.9999597668647766;-0.0;2.0
0.9999998807907104;-0.0;2.0
0.9999961256980896;-0.0;2.0
-0.3794224262237549;-0.0;1.0
-0.515565037727356;-0.0;1.0
-0.5894640684127808;-0.0;1.0
-0.6188126802444458;-0.0;1.0
-0.6318618059158325;-0.0;1.0
-0.6483464241027832;-0.0;1.0
-0.6473449468612671;-0.0;1.0
-0.6053496599197388;-0.0;1.0
-0.4861130714416504;-0.0;1.0
-0.3176753520965576;-0.0;1.0
-0.1972876787185669;-0.0;2.0
-0.19860458374023438;-0.0;2.0
-0.28118646144866943;-0.0;2.0
-0.32132840156555176;-0.0;2.0
-0.27630722522735596;-0.0;2.0
-0.19317233562469482;-0.0;2.0
-0.14137494564056396;-0.0;2.0
-0.13512086868286133;-0.0;2.0
-0.14754855632781982;-0.0;2.0
-0.15852463245391846;-0.0;2.0
-0.15281438827514648;-0.0;2.0
-0.1276237964630127;-0.0;2.0
-0.09168839454650879;-0.0;2.0
-0.07386958599090576;-0.0;2.0
-0.07573163509368896;-0.0;2.0
-0.10188806056976318;-0.0;2.0
-0.1311335563659668;-0.0;2.0
-0.14946115016937256;-0.0;2.0
-0.1452244520187378;-0.0;2.0
-0.12911438941955566;-0.0;2.0
-0.10489106178283691;-0.0;2.0
-0.05627119541168213;-0.0;2.0
0.015451252460479736;-0.0;2.0
0.07477891445159912;-0.0;2.0
0.06724953651428223;-0.0;2.0
0.02677309513092041;-0.0;2.0
0.025792181491851807;-0.0;2.0
0.07998734712600708;-0.0;2.0
0.13332027196884155;-0.0;2.0
0.16476500034332275;-0.0;1.0
0.20568513870239258;-0.0;2.0
0.4230269193649292;-0.0;2.0
0.4281294345855713;-0.0;2.0
0.3566462993621826;-0.0;2.0
0.2231726050376892;-0.0;2.0
0.10001164674758911;-0.0;2.0
0.01476508378982544;-0.0;2.0
-0.030575990676879883;-0.0;2.0
-0.0381850004196167;-0.0;2.0
-0.01321399211883545;-0.0;2.0
0.058046698570251465;-0.0;2.0
0.20632433891296387;-0.0;2.0
0.4096313714981079;-0.0;2.0
0.5291761755943298;-0.0;2.0
0.45942819118499756;-0.0;2.0
0.16816163063049316;-0.0;1.0
0.058658063411712646;-0.0;2.0
-0.07584583759307861;-0.0;2.0
-0.2259986400604248;-0.0;2.0
-0.33639049530029297;-0.0;2.0
-0.32151782512664795;-0.0;2.0
-0.13258790969848633;-0.0;2.0
0.8004788160324097;-0.0;1.0
0.7272341847419739;-0.0;1.0
0.5172877311706543;-0.0;1.0
0.4353390336036682;-0.0;2.0
0.5244048833847046;-0.0;2.0
0.7434502840042114;-0.0;2.0
0.9091616272926331;-0.0;2.0
0.9088384509086609;-0.0;2.0
0.9270747900009155;-0.0;2.0
0.8634610772132874;-0.0;2.0
0.8591133952140808;-0.0;2.0
0.9194628596305847;-0.0;2.0
0.9683048129081726;-0.0;2.0
0.9801251888275146;-0.0;2.0
0.9840948581695557;-0.0;2.0
0.9896621704101562;-0.0;2.0
0.9999952912330627;-0.0;2.0
0.9999964237213135;-0.0;2.0
0.9999878406524658;-0.0;2.0
0.9999575614929199;-0.0;2.0
0.9999714493751526;-0.0;2.0
0.9999998211860657;-0.0;2.0
1.0;-0.0;2.0
1.0;-0.0;2.0
1.0;-0.0;2.0
1.0;-0.0;2.0
1.0;-0.0;2.0
1.0;-0.0;2.0
0.9999577403068542;-0.0;2.0
0.9994476437568665;-0.0;2.0
0.9987205266952515;-0.0;2.0
0.9974536299705505;-0.0;2.0
0.9945711493492126;-0.0;2.0
0.9942107796669006;-0.0;2.0
0.9974721670150757;-0.0;2.0
0.9977926015853882;-0.0;2.0
0.9933580756187439;-0.0;2.0
0.9828668236732483;-0.0;2.0
0.9759548902511597;-0.0;2.0
0.9748094081878662;-0.0;2.0
0.9795191287994385;-0.0;2.0
0.9908442497253418;-0.0;2.0
0.9973844885826111;-0.0;2.0
0.9986587166786194;-0.0;2.0
0.9993047714233398;-0.0;2.0
0.9997342824935913;-0.0;2.0
0.9996854066848755;-0.0;2.0
0.9995890259742737;-0.0;2.0
0.9999144077301025;-0.0;2.0
0.9997997879981995;-0.0;2.0
0.9537763595581055;-0.0;2.0
0.5940524339675903;-0.0;2.0
0.4188883304595947;-0.0;2.0
-0.31660425662994385;-0.0;1.0
-0.48993003368377686;-0.0;1.0
-0.6317393779754639;-0.0;1.0
-0.6832137107849121;-0.0;1.0
-0.6656304597854614;-0.0;1.0
-0.6404412984848022;-0.0;1.0
-0.5889714956283569;-0.0;1.0
-0.4699157476425171;-0.0;1.0
-0.3005882501602173;-0.0;2.0
-0.1599971055984497;-0.0;2.0
-0.06955814361572266;-0.0;2.0
-0.07788872718811035;-0.0;2.0
-0.15192103385925293;-0.0;2.0
-0.21320271492004395;-0.0;2.0
-0.2197415828704834;-0.0;2.0
-0.1913243532180786;-0.0;2.0
-0.15137791633605957;-0.0;2.0
-0.08636701107025146;-0.0;2.0
0.0003466606140136719;-0.0;2.0
0.05316281318664551;-0.0;2.0
0.015512645244598389;-0.0;1.0
-0.09597539901733398;-0.0;1.0
-0.2082768678665161;-0.0;2.0
-0.2752685546875;-0.0;2.0
-0.2861597537994385;-0.0;2.0
-0.2815372943878174;-0.0;2.0
-0.2608903646469116;-0.0;2.0
-0.2088451385498047;-0.0;2.0
-0.135040283203125;-0.0;2.0
-0.09206497669219971;-0.0;2.0
-0.09112107753753662;-0.0;1.0
-0.06702947616577148;-0.0;1.0
-0.000661015510559082;-0.0;1.0
0.046395719051361084;-0.0;2.0
0.020648658275604248;-0.0;2.0
-0.008009791374206543;-0.0;2.0
0.021312832832336426;-0.0;2.0
0.07594376802444458;-0.0;2.0
0.08305341005325317;-0.0;2.0
0.07128846645355225;-0.0;1.0
0.41461461782455444;-0.0;2.0
0.32680314779281616;-0.0;2.0
0.24264460802078247;-0.0;2.0
0.19014126062393188;-0.0;2.0
0.1367397904396057;-0.0;2.0
0.04820370674133301;-0.0;2.0
-0.04656112194061279;-0.0;2.0
-0.10077118873596191;-0.0;2.0
-0.11172401905059814;-0.0;2.0
-0.0773090124130249;-0.0;2.0
0.03564220666885376;-0.0;2.0
0.22268801927566528;-0.0;2.0
0.39146047830581665;-0.0;2.0
0.3830663561820984;-0.0;2.0
0.22293168306350708;-0.0;2.0
0.12225484848022461;-0.0;2.0
0.04092472791671753;-0.0;2.0
-0.04727518558502197;-0.0;2.0
-0.15737736225128174;-0.0;2.0
-0.26157546043395996;-0.0;2.0
-0.27136921882629395;-0.0;2.0
0.7140538692474365;-0.0;1.0
0.5666225552558899;-0.0;2.0
0.5548924803733826;-0.0;2.0
0.7118616104125977;-0.0;2.0
0.9058929681777954;-0.0;2.0
0.9484086632728577;-0.0;2.0
0.8936658501625061;-0.0;2.0
0.9702733755111694;-0.0;2.0
0.9434042572975159;-0.0;2.0
0.8785003423690796;-0.0;2.0
0.8372992277145386;-0.0;2.0
0.868322491645813;-0.0;2.0
0.904546856880188;-0.0;2.0
0.9421027898788452;-0.0;2.0
0.980302095413208;-0.0;2.0
0.9999212026596069;-0.0;2.0
0.9999333024024963;-0.0;2.0
0.9998463988304138;-0.0;2.0
0.9987971782684326;-0.0;2.0
0.99953293800354;-0.0;2.0
0.9999616742134094;-0.0;2.0
0.9999955892562866;-0.0;2.0
0.9999998807907104;-0.0;2.0
0.9999999403953552;-0.0;2.0
0.9999999403953552;-0.0;2.0
0.9999995231628418;-0.0;2.0
0.9999978542327881;-0.0;2.0
0.9999651908874512;-0.0;2.0
0.9996816515922546;-0.0;2.0
0.9990856051445007;-0.0;2.0
0.9972457885742188;-0.0;2.0
0.9927055239677429;-0.0;2.0
0.9923466444015503;-0.0;2.0
0.9958592057228088;-0.0;2.0
0.9971495270729065;-0.0;2.0
0.9963685870170593;-0.0;2.0
0.9943881630897522;-0.0;2.0
0.9933558106422424;-0.0;2.0
0.993543267250061;-0.0;2.0
0.9936833381652832;-0.0;2.0
0.9926947355270386;-0.0;2.0
0.9941504597663879;-0.0;2.0
0.9978141188621521;-0.0;2.0
0.9992178678512573;-0.0;2.0
0.9995478391647339;-0.0;2.0
0.9985513091087341;-0.0;2.0
0.9991862773895264;-0.0;2.0
0.9956481456756592;-0.0;2.0
0.9167787432670593;-0.0;2.0
0.6188898086547852;-0.0;2.0
0.424770712852478;-0.0;2.0
0.37005746364593506;-0.0;2.0
0.38276445865631104;-0.0;2.0
-0.10487818717956543;-0.0;1.0
-0.25259554386138916;-0.0;1.0
-0.46045005321502686;-0.0;1.0
-0.6588201522827148;-0.0;1.0
-0.7296212911605835;-0.0;1.0
-0.6929279565811157;-0.0;1.0
-0.6268978118896484;-0.0;1.0
-0.5251625776290894;-0.0;1.0
-0.3507072925567627;-0.0;1.0
-0.030812859535217285;-0.0;2.0
0.042501747608184814;-0.0;2.0
0.058360278606414795;-0.0;2.0
0.026049792766571045;-0.0;2.0
-0.030364274978637695;-0.0;2.0
-0.08138167858123779;-0.0;2.0
-0.11808788776397705;-0.0;2.0
-0.11672067642211914;-0.0;2.0
-0.04346442222595215;-0.0;2.0
0.08441311120986938;-0.0;2.0
0.19180834293365479;-0.0;2.0
0.1801096796989441;-0.0;1.0
0.02936387062072754;-0.0;1.0
-0.1990288496017456;-0.0;1.0
-0.4139411449432373;-0.0;2.0
-0.47773146629333496;-0.0;2.0
-0.42804527282714844;-0.0;2.0
-0.35370802879333496;-0.0;2.0
-0.2681664228439331;-0.0;2.0
-0.16342496871948242;-0.0;2.0
-0.08222711086273193;-0.0;2.0
-0.05454611778259277;-0.0;1.0
-0.044583797454833984;-0.0;1.0
-0.01200878620147705;-0.0;1.0
0.011295616626739502;-0.0;2.0
-0.011819720268249512;-0.0;2.0
-0.02611565589904785;-0.0;2.0
0.012555062770843506;-0.0;2.0
0.062449634075164795;-0.0;2.0
0.0615273118019104;-0.0;1.0
0.4281191825866699;-0.0;2.0
0.2889241576194763;-0.0;2.0
0.2254619598388672;-0.0;2.0
0.24319839477539062;-0.0;2.0
0.2350260615348816;-0.0;2.0
0.1362120509147644;-0.0;2.0
0.011751651763916016;-0.0;2.0
-0.06989789009094238;-0.0;2.0
-0.10569798946380615;-0.0;2.0
-0.10499894618988037;-0.0;2.0
-0.03834867477416992;-0.0;2.0
0.10631746053695679;-0.0;2.0
0.26434963941574097;-0.0;2.0
0.1816180944442749;-0.0;2.0
0.14088934659957886;-0.0;2.0
0.0962594747543335;-0.0;2.0
0.06104058027267456;-0.0;2.0
0.004964351654052734;-0.0;2.0
-0.08777821063995361;-0.0;2.0
-0.171575665473938;-0.0;2.0
-0.1606433391571045;-0.0;2.0
0.6705441474914551;-0.0;2.0
0.7035993337631226;-0.0;2.0
0.8628547191619873;-0.0;2.0
0.9508305788040161;-0.0;2.0
0.9417495727539062;-0.0;2.0
0.876518189907074;-0.0;2.0
0.8517056703567505;-0.0;2.0
0.8854919672012329;-0.0;2.0
0.923850953578949;-0.0;2.0
0.9578870534896851;-0.0;2.0
0.9546164870262146;-0.0;2.0
0.9288454651832581;-0.0;2.0
0.8959692716598511;-0.0;2.0
0.8916102051734924;-0.0;2.0
0.8680115938186646;-0.0;2.0
0.8786047101020813;-0.0;2.0
0.9980397820472717;-0.0;2.0
0.9940743446350098;-0.0;2.0
0.998476505279541;-0.0;2.0
0.9998807907104492;-0.0;2.0
0.9999644160270691;-0.0;2.0
0.9999732375144958;-0.0;2.0
0.9997996091842651;-0.0;2.0
0.999885618686676;-0.0;2.0
0.9999799728393555;-0.0;2.0
0.9999514818191528;-0.0;2.0
0.9997712969779968;-0.0;2.0
0.9988229274749756;-0.0;2.0
0.9961432218551636;-0.0;2.0
0.9896857738494873;-0.0;2.0
0.9825578927993774;-0.0;2.0
0.9869462847709656;-0.0;2.0
0.9926087856292725;-0.0;2.0
0.9946715831756592;-0.0;2.0
0.9950079917907715;-0.0;2.0
0.9950647950172424;-0.0;2.0
0.9945387244224548;-0.0;2.0
0.9951530694961548;-0.0;2.0
0.9953046441078186;-0.0;2.0
0.992426872253418;-0.0;2.0
0.9872885346412659;-0.0;2.0
0.9961008429527283;-0.0;2.0
0.9985628128051758;-0.0;2.0
0.9981952905654907;-0.0;2.0
0.960889995098114;-0.0;2.0
0.8128702640533447;-0.0;2.0
0.5715458393096924;-0.0;2.0
0.4162619113922119;-0.0;2.0
0.3733021020889282;-0.0;2.0
0.3688787817955017;-0.0;2.0
0.25783634185791016;-0.0;2.0
0.12564563751220703;-0.0;1.0
0.023572564125061035;-0.0;1.0
-0.0570756196975708;-0.0;1.0
-0.20776987075805664;-0.0;1.0
-0.44616901874542236;-0.0;1.0
-0.6664773225784302;-0.0;1.0
-0.7399499416351318;-0.0;1.0
-0.7118936777114868;-0.0;1.0
-0.6256526708602905;-0.0;1.0
-0.49211394786834717;-0.0;1.0
0.12297683954238892;-0.0;2.0
0.14646285772323608;-0.0;2.0
0.15607738494873047;-0.0;2.0
0.14234286546707153;-0.0;2.0
0.09972590208053589;-0.0;2.0
0.04253041744232178;-0.0;2.0
-0.0008856058120727539;-0.0;2.0
0.010088920593261719;-0.0;2.0
0.08590024709701538;-0.0;2.0
0.1866275668144226;-0.0;2.0
0.23202526569366455;-0.0;1.0
0.14262568950653076;-0.0;1.0
-0.07497859001159668;-0.0;1.0
-0.3494546413421631;-0.0;2.0
-0.5148907899856567;-0.0;2.0
-0.5068650245666504;-0.0;2.0
-0.4324909448623657;-0.0;2.0
-0.3442540168762207;-0.0;2.0
-0.23297250270843506;-0.0;2.0
-0.11339426040649414;-0.0;2.0
-0.0346066951751709;-0.0;1.0
-0.01992213726043701;-0.0;1.0
-0.064369797706604;-0.0;2.0
-0.037407636642456055;-0.0;2.0
0.02506709098815918;-0.0;1.0
0.08186376094818115;-0.0;1.0
0.5432041883468628;-0.0;2.0
0.3662509322166443;-0.0;2.0
0.28997838497161865;-0.0;2.0
0.3065211772918701;-0.0;2.0
0.30758655071258545;-0.0;2.0
0.2226274609565735;-0.0;2.0
0.09745252132415771;-0.0;2.0
0.01413118839263916;-0.0;2.0
-0.03143131732940674;-0.0;2.0
-0.05279207229614258;-0.0;2.0
-0.026461482048034668;-0.0;2.0
0.07867282629013062;-0.0;2.0
0.21773964166641235;-0.0;2.0
0.08802300691604614;-0.0;2.0
0.06077390909194946;-0.0;2.0
0.06533598899841309;-0.0;2.0
0.08593994379043579;-0.0;2.0
0.07400888204574585;-0.0;2.0
0.0013637542724609375;-0.0;2.0
-0.10216009616851807;-0.0;2.0
-0.13501906394958496;-0.0;2.0
0.8035757541656494;-0.0;2.0
0.9013413786888123;-0.0;2.0
0.944337785243988;-0.0;1.0
0.9493726491928101;-0.0;2.0
0.9701407551765442;-0.0;2.0
0.9747256636619568;-0.0;2.0
0.9739637970924377;-0.0;2.0
0.9718137979507446;-0.0;2.0
0.9433795809745789;-0.0;2.0
0.9989616870880127;-0.0;2.0
0.9997625946998596;-0.0;2.0
0.9998766183853149;-0.0;2.0
0.9998738169670105;-0.0;2.0
0.9980289340019226;-0.0;2.0
0.9965885281562805;-0.0;2.0
0.9987917542457581;-0.0;2.0
0.9994108080863953;-0.0;2.0
0.9982284903526306;-0.0;2.0
0.9820513725280762;-0.0;2.0
0.9572310447692871;-0.0;2.0
0.960226833820343;-0.0;2.0
0.9777351021766663;-0.0;2.0
0.9905069470405579;-0.0;2.0
0.9901247620582581;-0.0;2.0
0.9875388145446777;-0.0;2.0
0.9836608171463013;-0.0;2.0
0.987446665763855;-0.0;2.0
0.9915083646774292;-0.0;2.0
0.9936255216598511;-0.0;2.0
0.9923112392425537;-0.0;2.0
0.9875562191009521;-0.0;2.0
0.985238254070282;-0.0;2.0
0.9962893724441528;-0.0;2.0
0.998291552066803;-0.0;2.0
0.9980737566947937;-0.0;2.0
0.6058151125907898;-0.0;2.0
0.4567912220954895;-0.0;2.0
0.38903099298477173;-0.0;2.0
0.3696538209915161;-0.0;2.0
0.33662188053131104;-0.0;2.0
0.22000616788864136;-0.0;2.0
0.10034149885177612;-0.0;1.0
0.035119712352752686;-0.0;1.0
-0.010235309600830078;-0.0;1.0
-0.13929665088653564;-0.0;1.0
-0.3715851306915283;-0.0;1.0
-0.6142525672912598;-0.0;1.0
-0.7193613052368164;-0.0;1.0
-0.7197132110595703;-0.0;1.0
-0.6109281778335571;-0.0;1.0
0.15799224376678467;-0.0;2.0
0.15506517887115479;-0.0;2.0
0.19044065475463867;-0.0;2.0
0.24308961629867554;-0.0;2.0
0.2614006996154785;-0.0;2.0
0.23145705461502075;-0.0;2.0
0.15716588497161865;-0.0;2.0
0.08160144090652466;-0.0;2.0
0.053416430950164795;-0.0;2.0
0.08985030651092529;-0.0;2.0
0.14307904243469238;-0.0;2.0
0.13741368055343628;-0.0;1.0
0.03358107805252075;-0.0;1.0
-0.16394317150115967;-0.0;1.0
-0.3726557493209839;-0.0;2.0
-0.48862218856811523;-0.0;2.0
-0.48135602474212646;-0.0;2.0
-0.4044198989868164;-0.0;2.0
-0.28694605827331543;-0.0;2.0
-0.15301179885864258;-0.0;1.0
-0.04884028434753418;-0.0;1.0
-0.020450115203857422;-0.0;1.0
-0.12094295024871826;-0.0;2.0
-0.050682783126831055;-0.0;1.0
0.47533100843429565;-0.0;2.0
0.3527432680130005;-0.0;2.0
0.32559412717819214;-0.0;2.0
0.3139461874961853;-0.0;2.0
0.27089279890060425;-0.0;2.0
0.20097637176513672;-0.0;2.0
0.13671541213989258;-0.0;2.0
0.06502735614776611;-0.0;2.0
-0.006559014320373535;-0.0;2.0
-0.02825021743774414;-0.0;2.0
0.06068003177642822;-0.0;2.0
0.004941165447235107;-0.0;2.0
-0.04235947132110596;-0.0;2.0
-0.012079238891601562;-0.0;2.0
0.04923224449157715;-0.0;2.0
0.037200093269348145;-0.0;2.0
-0.06501305103302002;-0.0;2.0
-0.16963708400726318;-0.0;2.0
-0.14007854461669922;-0.0;1.0
0.9791768789291382;-0.0;2.0
0.9850313663482666;-0.0;2.0
0.9888917207717896;-0.0;2.0
0.9997785091400146;-0.0;2.0
0.999772310256958;-0.0;2.0
0.9981053471565247;-0.0;2.0
0.9927359223365784;-0.0;2.0
0.987878143787384;-0.0;2.0
0.9868065714836121;-0.0;2.0
0.9748132228851318;-0.0;2.0
0.9067057967185974;-0.0;2.0
0.8699061870574951;-0.0;2.0
0.9227246642112732;-0.0;2.0
0.9840777516365051;-0.0;2.0
0.9932806491851807;-0.0;2.0
0.9872238636016846;-0.0;2.0
0.9745994806289673;-0.0;2.0
0.9476457834243774;-0.0;2.0
0.9558358192443848;-0.0;2.0
0.9836072325706482;-0.0;2.0
0.99289870262146;-0.0;2.0
0.992736279964447;-0.0;2.0
0.9899219274520874;-0.0;2.0
0.9870772361755371;-0.0;2.0
0.9949640035629272;-0.0;2.0
0.9975519776344299;-0.0;2.0
0.9986094236373901;-0.0;2.0
0.9971911311149597;-0.0;2.0
0.3806653618812561;-0.0;2.0
0.3361973762512207;-0.0;2.0
0.21882206201553345;-0.0;2.0
0.08931350708007812;-0.0;1.0
0.01911681890487671;-0.0;1.0
-0.009867072105407715;-0.0;1.0
-0.620137095451355;-0.0;1.0
-0.6333056688308716;-0.0;1.0
0.1589168906211853;-0.0;2.0
0.11163800954818726;-0.0;2.0
0.1677941083908081;-0.0;2.0
0.29151254892349243;-0.0;2.0
0.3770454525947571;-0.0;2.0
0.3709215521812439;-0.0;2.0
0.27594059705734253;-0.0;2.0
0.1514657735824585;-0.0;2.0
0.04991269111633301;-0.0;2.0
0.013122797012329102;-0.0;2.0
0.026942670345306396;-0.0;2.0
0.05051887035369873;-0.0;2.0
0.04291737079620361;-0.0;1.0
-0.03977084159851074;-0.0;1.0
-0.19859671592712402;-0.0;1.0
-0.3588583469390869;-0.0;1.0
-0.42035067081451416;-0.0;1.0
-0.3687402009963989;-0.0;1.0
-0.2626504898071289;-0.0;1.0
-0.15717828273773193;-0.0;1.0
-0.08363664150238037;-0.0;1.0
0.2838168144226074;-0.0;2.0
0.2805395722389221;-0.0;2.0
0.2999061346054077;-0.0;2.0
0.31069451570510864;-0.0;2.0
0.27492785453796387;-0.0;2.0
0.1490899920463562;-0.0;2.0
0.020468831062316895;-0.0;2.0
-0.02591860294342041;-0.0;2.0
0.07158297300338745;-0.0;2.0
0.09848976135253906;-0.0;2.0
-0.05369150638580322;-0.0;2.0
-0.11640334129333496;-0.0;2.0
-0.08311343193054199;-0.0;2.0
-0.013976335525512695;-0.0;2.0
-0.02427983283996582;-0.0;2.0
-0.1243671178817749;-0.0;2.0
-0.20545315742492676;-0.0;1.0
0.23462539911270142;-0.0;1.0
0.1222652792930603;-0.0;1.0
0.33163779973983765;-0.0;2.0
0.5595096349716187;-0.0;2.0
0.9994872808456421;-0.0;2.0
0.9982637166976929;-0.0;1.0
0.9925323128700256;-0.0;1.0
0.9802480340003967;-0.0;1.0
0.9589893817901611;-0.0;1.0
0.9136243462562561;-0.0;2.0
0.8283188939094543;-0.0;2.0
0.8066931962966919;-0.0;2.0
0.8995786309242249;-0.0;2.0
0.9859804511070251;-0.0;2.0
0.9906033277511597;-0.0;2.0
0.9824380278587341;-0.0;2.0
0.9625554084777832;-0.0;2.0
0.9254946708679199;-0.0;2.0
0.9205760955810547;-0.0;2.0
0.967646062374115;-0.0;2.0
0.9925312995910645;-0.0;2.0
0.9940481781959534;-0.0;2.0
0.9916951060295105;-0.0;2.0
0.982542872428894;-0.0;2.0
0.9811334013938904;-0.0;2.0
0.9912753105163574;-0.0;2.0
0.9974150657653809;-0.0;2.0
0.9987687468528748;-0.0;2.0
0.09585249423980713;-0.0;2.0
0.17177724838256836;-0.0;2.0
0.3416011929512024;-0.0;2.0
0.4603143334388733;-0.0;2.0
0.45270705223083496;-0.0;2.0
0.34847527742385864;-0.0;2.0
0.22503286600112915;-0.0;2.0
0.10528850555419922;-0.0;2.0
0.022321045398712158;-0.0;2.0
-0.014894723892211914;-0.0;2.0
-0.016904354095458984;-0.0;2.0
-0.01437079906463623;-0.0;2.0
-0.04488956928253174;-0.0;2.0
-0.122467041015625;-0.0;1.0
-0.21661484241485596;-0.0;1.0
-0.26590001583099365;-0.0;1.0
-0.24258661270141602;-0.0;1.0
-0.16953253746032715;-0.0;1.0
-0.11308467388153076;-0.0;1.0
0.2345384955406189;-0.0;2.0
0.32985126972198486;-0.0;2.0
0.39689338207244873;-0.0;2.0
0.3478217124938965;-0.0;2.0
0.17401134967803955;-0.0;2.0
0.047320544719696045;-0.0;2.0
0.06342977285385132;-0.0;2.0
0.06233185529708862;-0.0;2.0
-0.07683312892913818;-0.0;2.0
-0.12529301643371582;-0.0;2.0
-0.08890104293823242;-0.0;2.0
-0.020710110664367676;-0.0;2.0
-0.004567146301269531;-0.0;2.0
-0.0673445463180542;-0.0;1.0
0.4571824073791504;-0.0;2.0
0.45720744132995605;-0.0;2.0
0.38494718074798584;-0.0;2.0
0.36416614055633545;-0.0;2.0
0.4783586263656616;-0.0;2.0
0.605450451374054;-0.0;2.0
0.6583194732666016;-0.0;2.0
0.6793931126594543;-0.0;2.0
0.7298908233642578;-0.0;2.0
0.7720473408699036;-0.0;2.0
0.782718300819397;-0.0;2.0
0.7879748940467834;-0.0;2.0
0.5969208478927612;-0.0;2.0
0.6398476362228394;-0.0;2.0
0.9793271422386169;-0.0;1.0
0.9314389228820801;-0.0;1.0
0.8311594128608704;-0.0;2.0
0.764910101890564;-0.0;2.0
0.8082120418548584;-0.0;2.0
0.9180647134780884;-0.0;2.0
0.9699739217758179;-0.0;2.0
0.9699700474739075;-0.0;2.0
0.9505395889282227;-0.0;2.0
0.9331589341163635;-0.0;2.0
0.9874800443649292;-0.0;2.0
0.9937474727630615;-0.0;2.0
0.8719576597213745;-0.0;2.0
0.13890761137008667;-0.0;2.0
0.21770167350769043;-0.0;2.0
0.3677458167076111;-0.0;2.0
0.47777169942855835;-0.0;2.0
0.4758225679397583;-0.0;2.0
0.3950386643409729;-0.0;2.0
0.29466021060943604;-0.0;2.0
0.19560682773590088;-0.0;2.0
0.10634618997573853;-0.0;2.0
0.03458958864212036;-0.0;2.0
-0.016908645629882812;-0.0;2.0
-0.05973255634307861;-0.0;2.0
-0.09900557994842529;-0.0;2.0
-0.12275683879852295;-0.0;2.0
-0.13714885711669922;-0.0;1.0
-0.14467203617095947;-0.0;1.0
-0.12748491764068604;-0.0;1.0
-0.061862945556640625;-0.0;1.0
0.3739347457885742;-0.0;2.0
0.4162188172340393;-0.0;2.0
0.30409330129623413;-0.0;2.0
0.12879681587219238;-0.0;2.0
0.08419567346572876;-0.0;1.0
0.2561587691307068;-0.0;1.0
0.1766432523727417;-0.0;2.0
0.016143798828125;-0.0;2.0
-0.06928777694702148;-0.0;2.0
-0.04679429531097412;-0.0;2.0
0.056007444858551025;-0.0;2.0
0.16584926843643188;-0.0;2.0
0.20328295230865479;-0.0;1.0
0.12823545932769775;-0.0;1.0
0.5074604153633118;-0.0;2.0
0.5890464186668396;-0.0;2.0
0.626808762550354;-0.0;2.0
0.551706075668335;-0.0;2.0
0.44238871335983276;-0.0;2.0
0.4670030474662781;-0.0;2.0
0.5588045120239258;-0.0;2.0
0.5870047211647034;-0.0;2.0
0.5445418357849121;-0.0;2.0
0.5268192291259766;-0.0;2.0
0.5701429843902588;-0.0;2.0
0.665900468826294;-0.0;2.0
0.7580742239952087;-0.0;2.0
0.7966122627258301;-0.0;2.0
0.7424246072769165;-0.0;2.0
0.6208323240280151;-0.0;2.0
0.526376485824585;-0.0;2.0
0.615464448928833;-0.0;2.0
0.8606775403022766;-0.0;2.0
0.7929390072822571;-0.0;2.0
0.8772515058517456;-0.0;1.0
0.9333273768424988;-0.0;2.0
0.9199723601341248;-0.0;2.0
0.8726754188537598;-0.0;2.0
0.8692681789398193;-0.0;2.0
0.22857362031936646;-0.0;2.0
0.30281245708465576;-0.0;2.0
0.40142500400543213;-0.0;2.0
0.454830527305603;-0.0;2.0
0.4320831894874573;-0.0;1.0
0.34992432594299316;-0.0;1.0
0.26898837089538574;-0.0;1.0
0.1890850067138672;-0.0;2.0
0.10450822114944458;-0.0;2.0
0.01922816038131714;-0.0;2.0
-0.05302393436431885;-0.0;2.0
-0.1002960205078125;-0.0;2.0
-0.11366856098175049;-0.0;2.0
-0.1105499267578125;-0.0;2.0
-0.10498416423797607;-0.0;2.0
-0.07783293724060059;-0.0;1.0
0.010542094707489014;-0.0;1.0
0.3530682325363159;-0.0;2.0
0.234338641166687;-0.0;2.0
0.1276925802230835;-0.0;2.0
0.18201911449432373;-0.0;1.0
0.12881696224212646;-0.0;2.0
0.00727313756942749;-0.0;2.0
-0.03085494041442871;-0.0;2.0
0.0825762152671814;-0.0;2.0
0.3069109320640564;-0.0;2.0
0.4994428753852844;-0.0;1.0
0.5049822330474854;-0.0;1.0
0.324163019657135;-0.0;1.0
0.4114872217178345;-0.0;1.0
0.5199605822563171;-0.0;2.0
0.5845193862915039;-0.0;2.0
0.5916661024093628;-0.0;2.0
0.525407075881958;-0.0;2.0
0.4954192638397217;-0.0;2.0
0.5511438846588135;-0.0;2.0
0.5998371243476868;-0.0;2.0
0.5615812540054321;-0.0;2.0
0.46157294511795044;-0.0;2.0
0.37920665740966797;-0.0;2.0
0.39455312490463257;-0.0;2.0
0.5065429210662842;-0.0;2.0
0.6416382789611816;-0.0;2.0
0.6891293525695801;-0.0;2.0
0.6363877058029175;-0.0;2.0
0.5312939882278442;-0.0;2.0
0.46705693006515503;-0.0;2.0
0.5502656698226929;-0.0;2.0
0.7557902336120605;-0.0;2.0
0.4578089118003845;-0.0;2.0
0.3579081892967224;-0.0;1.0
0.40319567918777466;-0.0;2.0
0.9365507960319519;-0.0;2.0
0.8790616393089294;-0.0;2.0
0.21862560510635376;-0.0;2.0
0.29745715856552124;-0.0;2.0
0.3953309655189514;-0.0;1.0
0.4397321939468384;-0.0;1.0
0.3889045715332031;-0.0;1.0
0.3153427839279175;-0.0;1.0
0.22759610414505005;-0.0;1.0
0.13215398788452148;-0.0;1.0
0.04057270288467407;-0.0;1.0
-0.01800370216369629;-0.0;1.0
-0.05057656764984131;-0.0;1.0
-0.06985032558441162;-0.0;2.0
-0.07869100570678711;-0.0;2.0
-0.06944286823272705;-0.0;2.0
-0.023439764976501465;-0.0;2.0
0.06430304050445557;-0.0;1.0
0.12462383508682251;-0.0;1.0
0.1723874807357788;-0.0;2.0
0.061523616313934326;-0.0;2.0
0.033771395683288574;-0.0;2.0
0.19695734977722168;-0.0;2.0
0.48131048679351807;-0.0;2.0
0.6701499819755554;-0.0;2.0
0.5684826970100403;-0.0;1.0
0.1828795075416565;-0.0;1.0
0.27488744258880615;-0.0;1.0
0.37535399198532104;-0.0;2.0
0.3995799422264099;-0.0;2.0
0.3713700771331787;-0.0;2.0
0.3497539162635803;-0.0;2.0
0.47149842977523804;-0.0;2.0
0.590668797492981;-0.0;2.0
0.6425435543060303;-0.0;2.0
0.5910086035728455;-0.0;2.0
0.49228060245513916;-0.0;2.0
0.353920042514801;-0.0;2.0
0.28445160388946533;-0.0;2.0
0.3542085886001587;-0.0;2.0
0.4965798258781433;-0.0;2.0
0.5498172044754028;-0.0;2.0
0.5071775913238525;-0.0;2.0
0.45802390575408936;-0.0;2.0
0.4690015912055969;-0.0;2.0
0.539559006690979;-0.0;2.0
0.6534771919250488;-0.0;2.0
0.7605138421058655;-0.0;2.0
0.7678735256195068;-0.0;2.0
0.6544840931892395;-0.0;2.0
0.422230064868927;-0.0;2.0
0.1871119737625122;-0.0;1.0
0.18985897302627563;-0.0;2.0
0.4251568913459778;-0.0;2.0
0.2404087781906128;-0.0;1.0
0.33251315355300903;-0.0;1.0
0.4237072467803955;-0.0;1.0
0.4321504831314087;-0.0;1.0
0.3691476583480835;-0.0;1.0
0.25510597229003906;-0.0;1.0
0.13148736953735352;-0.0;1.0
0.04754549264907837;-0.0;1.0
0.019582629203796387;-0.0;1.0
0.0050667524337768555;-0.0;1.0
-0.025906085968017578;-0.0;2.0
-0.050877928733825684;-0.0;2.0
-0.027884602546691895;-0.0;2.0
0.04954570531845093;-0.0;2.0
0.1455991268157959;-0.0;2.0
0.2136799693107605;-0.0;1.0
0.4072304964065552;-0.0;2.0
0.2183423638343811;-0.0;2.0
0.13948124647140503;-0.0;2.0
0.26976460218429565;-0.0;2.0
0.5013039112091064;-0.0;2.0
0.5937933921813965;-0.0;1.0
0.4152865409851074;-0.0;1.0
-0.07979726791381836;-0.0;1.0
-0.0020498037338256836;-0.0;1.0
0.10303664207458496;-0.0;1.0
0.21716439723968506;-0.0;1.0
0.2931670546531677;-0.0;1.0
0.22756808996200562;-0.0;1.0
0.12631481885910034;-0.0;1.0
0.021722018718719482;-0.0;1.0
0.06354719400405884;-0.0;1.0
0.1954559087753296;-0.0;2.0
0.18618535995483398;-0.0;2.0
0.10302567481994629;-0.0;2.0
0.09508073329925537;-0.0;2.0
0.3226565718650818;-0.0;2.0
0.5012326240539551;-0.0;2.0
0.5699851512908936;-0.0;2.0
0.5518989562988281;-0.0;2.0
0.47496408224105835;-0.0;2.0
0.3090781569480896;-0.0;2.0
0.15592694282531738;-0.0;1.0
0.20453530550003052;-0.0;1.0
0.3801167607307434;-0.0;2.0
0.470467209815979;-0.0;2.0
0.44519639015197754;-0.0;2.0
0.4207584857940674;-0.0;2.0
0.48235052824020386;-0.0;2.0
0.5473018884658813;-0.0;2.0
0.5792744159698486;-0.0;2.0
0.6005675792694092;-0.0;2.0
0.6246477365493774;-0.0;2.0
0.5968480706214905;-0.0;2.0
0.4722466468811035;-0.0;2.0
0.2909201383590698;-0.0;2.0
0.2579115629196167;-0.0;2.0
0.48404043912887573;-0.0;2.0
0.665913462638855;-0.0;2.0
0.7109766006469727;-0.0;2.0
0.29506856203079224;-0.0;1.0
0.4004366993904114;-0.0;1.0
0.4688212275505066;-0.0;1.0
0.43372583389282227;-0.0;1.0
0.31147879362106323;-0.0;1.0
0.17740005254745483;-0.0;1.0
0.09218555688858032;-0.0;1.0
0.06690239906311035;-0.0;1.0
0.037854790687561035;-0.0;1.0
-0.011638402938842773;-0.0;1.0
-0.04667806625366211;-0.0;2.0
-0.01876199245452881;-0.0;2.0
0.07691943645477295;-0.0;2.0
0.22251427173614502;-0.0;2.0
0.39555132389068604;-0.0;1.0
0.4925232529640198;-0.0;1.0
0.3095253109931946;-0.0;2.0
0.35177260637283325;-0.0;2.0
0.5005391836166382;-0.0;1.0
0.49420028924942017;-0.0;1.0
0.29862284660339355;-0.0;1.0
0.128190279006958;-0.0;2.0
0.16203081607818604;-0.0;1.0
-0.023839473724365234;-0.0;1.0
-0.1459289789199829;-0.0;1.0
-0.03204655647277832;-0.0;1.0
0.09934478998184204;-0.0;1.0
0.16964340209960938;-0.0;1.0
0.15155404806137085;-0.0;1.0
0.07003426551818848;-0.0;1.0
-0.07386958599090576;-0.0;1.0
-0.24411070346832275;-0.0;1.0
-0.07664263248443604;-0.0;2.0
0.14083874225616455;-0.0;2.0
0.13981157541275024;-0.0;2.0
0.027206063270568848;-0.0;2.0
0.0011793971061706543;-0.0;2.0
0.18421059846878052;-0.0;2.0
0.36580896377563477;-0.0;2.0
0.4431014060974121;-0.0;2.0
0.45269525051116943;-0.0;2.0
0.39161574840545654;-0.0;2.0
0.2410147786140442;-0.0;2.0
0.0612679123878479;-0.0;2.0
0.0906476378440857;-0.0;2.0
0.30100345611572266;-0.0;2.0
0.45514750480651855;-0.0;2.0
0.45717906951904297;-0.0;2.0
0.4163780212402344;-0.0;2.0
0.46472859382629395;-0.0;2.0
0.5297351479530334;-0.0;2.0
0.5495815277099609;-0.0;2.0
0.533490777015686;-0.0;2.0
0.562121570110321;-0.0;2.0
0.6076788902282715;-0.0;2.0
0.5809967517852783;-0.0;2.0
0.47020041942596436;-0.0;2.0
0.39613890647888184;-0.0;2.0
0.4947513937950134;-0.0;2.0
0.6219106912612915;-0.0;2.0
0.635863184928894;-0.0;2.0
0.6377053260803223;-0.0;2.0
0.7761266827583313;-0.0;2.0
0.9301688075065613;-0.0;2.0
0.31287193298339844;-0.0;1.0
0.38655537366867065;-0.0;1.0
0.4574425220489502;-0.0;1.0
0.46233099699020386;-0.0;1.0
0.3813408613204956;-0.0;1.0
0.27681148052215576;-0.0;1.0
0.186815083026886;-0.0;1.0
0.13143694400787354;-0.0;1.0
0.06497269868850708;-0.0;1.0
-0.005044102668762207;-0.0;1.0
-0.06054341793060303;-0.0;2.0
-0.0590289831161499;-0.0;2.0
0.026754558086395264;-0.0;2.0
0.22780317068099976;-0.0;2.0
0.5523537397384644;-0.0;2.0
0.49189627170562744;-0.0;1.0
0.5094541907310486;-0.0;1.0
0.4112818241119385;-0.0;1.0
0.24588412046432495;-0.0;2.0
0.15249913930892944;-0.0;2.0
0.16126060485839844;-0.0;1.0
0.11609482765197754;-0.0;1.0
0.10887801647186279;-0.0;1.0
0.023109614849090576;-0.0;1.0
-0.07297325134277344;-0.0;1.0
-0.04518330097198486;-0.0;1.0
0.03041762113571167;-0.0;1.0
0.05121719837188721;-0.0;1.0
0.00405198335647583;-0.0;1.0
-0.11433911323547363;-0.0;1.0
-0.3584092855453491;-0.0;1.0
-0.4967350959777832;-0.0;1.0
-0.19681525230407715;-0.0;2.0
0.07731050252914429;-0.0;2.0
0.10583817958831787;-0.0;2.0
0.01666128635406494;-0.0;2.0
0.035546302795410156;-0.0;2.0
0.19461816549301147;-0.0;2.0
0.33789920806884766;-0.0;2.0
0.3802897334098816;-0.0;2.0
0.3947545289993286;-0.0;2.0
0.3851310610771179;-0.0;2.0
0.2905777096748352;-0.0;2.0
0.1105726957321167;-0.0;2.0
0.052093684673309326;-0.0;2.0
0.22798091173171997;-0.0;2.0
0.43137091398239136;-0.0;2.0
0.4866887331008911;-0.0;2.0
0.4346621632575989;-0.0;2.0
0.4290262460708618;-0.0;2.0
0.48326361179351807;-0.0;2.0
0.5249587893486023;-0.0;2.0
0.5288046598434448;-0.0;2.0
0.5563114881515503;-0.0;2.0
0.6203491687774658;-0.0;2.0
0.6296895146369934;-0.0;2.0
0.5381172895431519;-0.0;2.0
0.4089459776878357;-0.0;2.0
0.3739345669746399;-0.0;2.0
0.42971527576446533;-0.0;2.0
0.47103947401046753;-0.0;2.0
0.5073422193527222;-0.0;2.0
0.6746054887771606;-0.0;2.0
0.9322905540466309;-0.0;1.0
0.9289023280143738;-0.0;1.0
0.36812347173690796;-0.0;1.0
0.3937123417854309;-0.0;1.0
0.41598397493362427;-0.0;1.0
0.4250651001930237;-0.0;1.0
0.3981783390045166;-0.0;1.0
0.3409217596054077;-0.0;1.0
0.2523570656776428;-0.0;1.0
0.16734641790390015;-0.0;1.0
0.08424055576324463;-0.0;1.0
0.012414991855621338;-0.0;1.0
-0.05806088447570801;-0.0;2.0
-0.10555016994476318;-0.0;2.0
-0.06978964805603027;-0.0;2.0
0.10094434022903442;-0.0;2.0
0.45642954111099243;-0.0;2.0
0.46027666330337524;-0.0;1.0
0.28566455841064453;-0.0;1.0
0.20140206813812256;-0.0;2.0
0.26147186756134033;-0.0;2.0
0.4316309094429016;-0.0;2.0
0.3837531805038452;-0.0;1.0
0.24849927425384521;-0.0;1.0
0.15026861429214478;-0.0;1.0
0.05784952640533447;-0.0;1.0
0.026114702224731445;-0.0;1.0
0.049223124980926514;-0.0;1.0
0.07504713535308838;-0.0;1.0
0.04021662473678589;-0.0;1.0
-0.015619397163391113;-0.0;1.0
-0.04557502269744873;-0.0;1.0
-0.05541634559631348;-0.0;1.0
-0.10731637477874756;-0.0;1.0
-0.24128258228302002;-0.0;1.0
-0.4803626537322998;-0.0;1.0
-0.5908288955688477;-0.0;1.0
-0.37285876274108887;-0.0;1.0
-0.10170698165893555;-0.0;2.0
-0.03255307674407959;-0.0;1.0
-0.042788147926330566;-0.0;1.0
0.07575047016143799;-0.0;1.0
0.28299617767333984;-0.0;2.0
0.4044981002807617;-0.0;2.0
0.3998079299926758;-0.0;2.0
0.4107280969619751;-0.0;1.0
0.467589795589447;-0.0;2.0
0.43360817432403564;-0.0;2.0
0.2343347668647766;-0.0;2.0
0.09074932336807251;-0.0;2.0
0.18558084964752197;-0.0;2.0
0.3964025378227234;-0.0;2.0
0.48849374055862427;-0.0;2.0
0.46689486503601074;-0.0;2.0
0.4349668622016907;-0.0;2.0
0.4728390574455261;-0.0;2.0
0.5174189209938049;-0.0;2.0
0.5346775054931641;-0.0;2.0
0.5460929870605469;-0.0;2.0
0.5800045728683472;-0.0;2.0
0.5613816380500793;-0.0;2.0
0.4434577226638794;-0.0;2.0
0.2411637306213379;-0.0;2.0
0.13139045238494873;-0.0;2.0
0.18240314722061157;-0.0;2.0
0.3389606475830078;-0.0;2.0
0.4972880482673645;-0.0;2.0
0.6596657633781433;-0.0;2.0
0.3730957508087158;-0.0;1.0
0.4047011137008667;-0.0;1.0
0.4067121148109436;-0.0;1.0
0.38951313495635986;-0.0;1.0
0.36724328994750977;-0.0;1.0
0.32785046100616455;-0.0;1.0
0.24761372804641724;-0.0;1.0
0.15434342622756958;-0.0;1.0
0.08719015121459961;-0.0;1.0
0.03286266326904297;-0.0;1.0
-0.04573774337768555;-0.0;2.0
-0.14554059505462646;-0.0;2.0
-0.18869030475616455;-0.0;2.0
-0.112770676612854;-0.0;2.0
0.13300198316574097;-0.0;2.0
0.1907048225402832;-0.0;1.0
0.19268310070037842;-0.0;1.0
0.45163416862487793;-0.0;1.0
0.7512264251708984;-0.0;1.0
0.7521562576293945;-0.0;1.0
0.4635794162750244;-0.0;1.0
0.14996618032455444;-0.0;1.0
-0.1319746971130371;-0.0;1.0
-0.2290107011795044;-0.0;1.0
-0.15431654453277588;-0.0;1.0
-0.06080591678619385;-0.0;1.0
0.03332793712615967;-0.0;1.0
0.05546212196350098;-0.0;1.0
0.0018498897552490234;-0.0;1.0
-0.10054516792297363;-0.0;1.0
-0.14799273014068604;-0.0;1.0
-0.17979180812835693;-0.0;1.0
-0.23590195178985596;-0.0;1.0
-0.3889155387878418;-0.0;1.0
-0.5375335216522217;-0.0;1.0
-0.5296545028686523;-0.0;1.0
-0.36763954162597656;-0.0;2.0
-0.24025630950927734;-0.0;1.0
-0.1278775930404663;-0.0;1.0
0.09479027986526489;-0.0;1.0
0.33302098512649536;-0.0;2.0
0.4181663393974304;-0.0;2.0
0.3591196537017822;-0.0;2.0
0.34235256910324097;-0.0;2.0
0.41869139671325684;-0.0;2.0
0.43474817276000977;-0.0;2.0
0.2723292112350464;-0.0;2.0
0.12514865398406982;-0.0;2.0
0.1725327968597412;-0.0;2.0
0.3493850827217102;-0.0;2.0
0.46057450771331787;-0.0;2.0
0.48534274101257324;-0.0;2.0
0.46452730894088745;-0.0;2.0
0.4686563014984131;-0.0;2.0
0.4841359853744507;-0.0;2.0
0.49576663970947266;-0.0;2.0
0.49468863010406494;-0.0;2.0
0.4791228771209717;-0.0;2.0
0.39306193590164185;-0.0;2.0
0.22361814975738525;-0.0;2.0
0.01720750331878662;-0.0;2.0
-0.048832058906555176;-0.0;2.0
0.06829863786697388;-0.0;2.0
0.31741946935653687;-0.0;2.0
0.5453072786331177;-0.0;2.0
0.6864159107208252;-0.0;2.0
0.7362141609191895;-0.0;2.0
0.8995335102081299;-0.0;1.0
0.9057375192642212;-0.0;1.0
0.8036601543426514;-0.0;2.0
0.85979163646698;-0.0;2.0
0.41664594411849976;-0.0;2.0
0.45071887969970703;-0.0;1.0
0.4012441039085388;-0.0;1.0
0.3416993021965027;-0.0;1.0
0.2916921377182007;-0.0;1.0
0.2326483130455017;-0.0;1.0
0.1540238857269287;-0.0;1.0
0.1020200252532959;-0.0;1.0
0.05724620819091797;-0.0;1.0
-0.031035542488098145;-0.0;2.0
-0.1758650541305542;-0.0;2.0
-0.27958226203918457;-0.0;2.0
-0.27003657817840576;-0.0;2.0
-0.11032724380493164;-0.0;1.0
0.3823744058609009;-0.0;1.0
0.38625818490982056;-0.0;1.0
0.6002538800239563;-0.0;1.0
0.6963910460472107;-0.0;1.0
0.5941742062568665;-0.0;1.0
0.4163048267364502;-0.0;1.0
0.1343686580657959;-0.0;1.0
-0.21506547927856445;-0.0;1.0
-0.41103148460388184;-0.0;1.0
-0.3012833595275879;-0.0;1.0
-0.14713060855865479;-0.0;2.0
-0.04242980480194092;-0.0;2.0
-0.0017621517181396484;-0.0;1.0
-0.011318683624267578;-0.0;1.0
-0.10747897624969482;-0.0;1.0
-0.1731581687927246;-0.0;1.0
-0.19319283962249756;-0.0;1.0
-0.1914677619934082;-0.0;1.0
-0.27820003032684326;-0.0;1.0
-0.4015847444534302;-0.0;1.0
-0.44141721725463867;-0.0;1.0
-0.3227372169494629;-0.0;2.0
-0.18394839763641357;-0.0;2.0
-0.041919827461242676;-0.0;1.0
0.151078999042511;-0.0;1.0
0.3320992588996887;-0.0;2.0
0.35839593410491943;-0.0;2.0
0.25575464963912964;-0.0;2.0
0.1796724796295166;-0.0;2.0
0.20825845003128052;-0.0;1.0
0.23652184009552002;-0.0;1.0
0.19448161125183105;-0.0;1.0
0.14631932973861694;-0.0;2.0
0.19573050737380981;-0.0;2.0
0.31523627042770386;-0.0;2.0
0.41446763277053833;-0.0;2.0
0.46709269285202026;-0.0;2.0
0.4791497588157654;-0.0;2.0
0.4743698835372925;-0.0;2.0
0.4694991111755371;-0.0;2.0
0.47674936056137085;-0.0;2.0
0.4839184880256653;-0.0;2.0
0.44316375255584717;-0.0;2.0
0.3193884491920471;-0.0;2.0
0.16656488180160522;-0.0;2.0
0.06352847814559937;-0.0;2.0
0.05974864959716797;-0.0;2.0
0.1692296266555786;-0.0;2.0
0.3746214509010315;-0.0;2.0
0.5688774585723877;-0.0;2.0
0.6593585014343262;-0.0;2.0
0.660344660282135;-0.0;2.0
0.6804712414741516;-0.0;2.0
0.885202169418335;-0.0;1.0
0.851894736289978;-0.0;1.0
0.826656699180603;-0.0;1.0
0.8297067880630493;-0.0;1.0
0.9419795274734497;-0.0;2.0
0.41921722888946533;-0.0;2.0
0.5003639459609985;-0.0;2.0
0.4457204341888428;-0.0;1.0
0.3613361716270447;-0.0;2.0
0.29449641704559326;-0.0;1.0
0.25532352924346924;-0.0;1.0
0.2052820324897766;-0.0;1.0
0.17851614952087402;-0.0;1.0
0.13524210453033447;-0.0;1.0
0.007433831691741943;-0.0;1.0
-0.1721271276473999;-0.0;2.0
-0.2709554433822632;-0.0;2.0
-0.2552833557128906;-0.0;1.0
-0.1341550350189209;-0.0;1.0
0.7063488960266113;-0.0;1.0
0.6098980903625488;-0.0;1.0
0.3584900498390198;-0.0;1.0
0.19278889894485474;-0.0;1.0
0.15076690912246704;-0.0;1.0
0.08397924900054932;-0.0;2.0
-0.11297595500946045;-0.0;2.0
-0.3324989080429077;-0.0;1.0
-0.32474005222320557;-0.0;1.0
-0.20039069652557373;-0.0;1.0
-0.12791776657104492;-0.0;2.0
-0.11732649803161621;-0.0;1.0
-0.10716676712036133;-0.0;1.0
-0.15961062908172607;-0.0;1.0
-0.198144793510437;-0.0;1.0
-0.1929250955581665;-0.0;1.0
-0.17454242706298828;-0.0;1.0
-0.23290717601776123;-0.0;1.0
-0.30243825912475586;-0.0;1.0
-0.2720341682434082;-0.0;1.0
-0.11708605289459229;-0.0;1.0
0.02916663885116577;-0.0;2.0
0.15398311614990234;-0.0;2.0
0.25391340255737305;-0.0;2.0
0.33275681734085083;-0.0;2.0
0.30361199378967285;-0.0;2.0
0.18439173698425293;-0.0;1.0
0.04110240936279297;-0.0;1.0
0.0038486123085021973;-0.0;1.0
0.049545347690582275;-0.0;1.0
0.11846309900283813;-0.0;1.0
0.1567152738571167;-0.0;2.0
0.19709211587905884;-0.0;2.0
0.26949208974838257;-0.0;2.0
0.3578304648399353;-0.0;2.0
0.41475051641464233;-0.0;2.0
0.4479057192802429;-0.0;2.0
0.47379612922668457;-0.0;2.0
0.4925200939178467;-0.0;2.0
0.49521303176879883;-0.0;2.0
0.48357927799224854;-0.0;2.0
0.4425837993621826;-0.0;2.0
0.3605186343193054;-0.0;2.0
0.28405195474624634;-0.0;2.0
0.2512107491493225;-0.0;2.0
0.2576634883880615;-0.0;2.0
0.3045142889022827;-0.0;2.0
0.421428382396698;-0.0;2.0
0.5363126397132874;-0.0;2.0
0.555548369884491;-0.0;2.0
0.493030846118927;-0.0;2.0
0.4754055142402649;-0.0;2.0
0.5708141326904297;-0.0;2.0
0.6522555947303772;-0.0;2.0
0.7434611320495605;-0.0;1.0
0.7309674620628357;-0.0;1.0
0.7482514381408691;-0.0;1.0
0.7755119204521179;-0.0;1.0
0.5218063592910767;-0.0;2.0
0.4777204990386963;-0.0;2.0
0.37913763523101807;-0.0;1.0
0.28961849212646484;-0.0;1.0
0.2692747712135315;-0.0;1.0
0.2836645245552063;-0.0;1.0
0.3304786682128906;-0.0;1.0
0.3028191924095154;-0.0;1.0
0.11916452646255493;-0.0;1.0
-0.08800137042999268;-0.0;1.0
-0.14293599128723145;-0.0;1.0
-0.0775299072265625;-0.0;1.0
0.004374682903289795;-0.0;1.0
0.881978452205658;-0.0;1.0
0.6054530739784241;-0.0;1.0
0.08288830518722534;-0.0;1.0
-0.41042590141296387;-0.0;1.0
-0.32451367378234863;-0.0;1.0
-0.10918128490447998;-0.0;1.0
-0.08350324630737305;-0.0;1.0
-0.1682053804397583;-0.0;1.0
-0.22594022750854492;-0.0;1.0
-0.22821331024169922;-0.0;1.0
-0.2312021255493164;-0.0;2.0
-0.2608109712600708;-0.0;2.0
-0.2573124170303345;-0.0;1.0
-0.24298584461212158;-0.0;1.0
-0.21362459659576416;-0.0;1.0
-0.1775134801864624;-0.0;1.0
-0.165962815284729;-0.0;1.0
-0.22041857242584229;-0.0;1.0
-0.28131580352783203;-0.0;1.0
-0.21292781829833984;-0.0;1.0
-0.00894629955291748;-0.0;1.0
0.14679819345474243;-0.0;2.0
0.2281816601753235;-0.0;2.0
0.24233734607696533;-0.0;2.0
0.25964367389678955;-0.0;2.0
0.23558074235916138;-0.0;2.0
0.1558017134666443;-0.0;2.0
-0.0016640424728393555;-0.0;1.0
-0.08388638496398926;-0.0;1.0
-0.020021438598632812;-0.0;1.0
0.10446953773498535;-0.0;1.0
0.16528862714767456;-0.0;2.0
0.18234574794769287;-0.0;2.0
0.23127484321594238;-0.0;2.0
0.3173026442527771;-0.0;2.0
0.3601101040840149;-0.0;2.0
0.389736533164978;-0.0;2.0
0.4497806429862976;-0.0;2.0
0.5186824798583984;-0.0;2.0
0.5196137428283691;-0.0;2.0
0.4614377021789551;-0.0;2.0
0.4082387685775757;-0.0;2.0
0.391088604927063;-0.0;2.0
0.38323092460632324;-0.0;2.0
0.35113245248794556;-0.0;2.0
0.3276578187942505;-0.0;2.0
0.360836386680603;-0.0;2.0
0.4549885392189026;-0.0;2.0
0.516124963760376;-0.0;2.0
0.47779667377471924;-0.0;2.0
0.36113059520721436;-0.0;2.0
0.27757972478866577;-0.0;2.0
0.3381025195121765;-0.0;2.0
0.5407990217208862;-0.0;2.0
0.7471026182174683;-0.0;2.0
0.5698842406272888;-0.0;1.0
0.5228315591812134;-0.0;1.0
0.6160467863082886;-0.0;1.0
0.7443786859512329;-0.0;1.0
0.47989875078201294;-0.0;2.0
0.3786455988883972;-0.0;1.0
0.27673691511154175;-0.0;1.0
0.2804532051086426;-0.0;1.0
0.3779340386390686;-0.0;1.0
0.5029572248458862;-0.0;1.0
0.4765355587005615;-0.0;1.0
0.2665313482284546;-0.0;1.0
0.06803452968597412;-0.0;1.0
0.034312427043914795;-0.0;1.0
0.11755961179733276;-0.0;1.0
0.9163939952850342;-0.0;1.0
0.6368783712387085;-0.0;1.0
-0.08351433277130127;-0.0;1.0
-0.6829653978347778;-0.0;1.0
-0.5991294384002686;-0.0;1.0
-0.31513500213623047;-0.0;1.0
-0.16232240200042725;-0.0;1.0
-0.15456640720367432;-0.0;1.0
-0.2312706708908081;-0.0;1.0
-0.2847641706466675;-0.0;1.0
-0.30782198905944824;-0.0;2.0
-0.3512622117996216;-0.0;1.0
-0.37446773052215576;-0.0;1.0
-0.3339189291000366;-0.0;1.0
-0.2472517490386963;-0.0;1.0
-0.1927025318145752;-0.0;1.0
-0.19000113010406494;-0.0;1.0
-0.2854461669921875;-0.0;1.0
-0.44119274616241455;-0.0;1.0
-0.44043242931365967;-0.0;1.0
-0.16694557666778564;-0.0;1.0
0.08344310522079468;-0.0;1.0
0.1864553689956665;-0.0;1.0
0.16182392835617065;-0.0;2.0
0.14449286460876465;-0.0;2.0
0.13263624906539917;-0.0;2.0
0.08487695455551147;-0.0;1.0
-0.0451282262802124;-0.0;1.0
-0.11034977436065674;-0.0;1.0
-0.041066884994506836;-0.0;1.0
0.0780869722366333;-0.0;2.0
0.14122247695922852;-0.0;2.0
0.16176283359527588;-0.0;2.0
0.1970112919807434;-0.0;2.0
0.2714483141899109;-0.0;2.0
0.29660385847091675;-0.0;2.0
0.3026323914527893;-0.0;2.0
0.36039674282073975;-0.0;2.0
0.47556614875793457;-0.0;2.0
0.5043158531188965;-0.0;2.0
0.40868401527404785;-0.0;2.0
0.2848936915397644;-0.0;2.0
0.26199132204055786;-0.0;2.0
0.3021290898323059;-0.0;2.0
0.3206549882888794;-0.0;2.0
0.3265995979309082;-0.0;2.0
0.37145692110061646;-0.0;2.0
0.44252586364746094;-0.0;2.0
0.4586883783340454;-0.0;2.0
0.4079796075820923;-0.0;2.0
0.32233792543411255;-0.0;2.0
0.222467839717865;-0.0;2.0
0.18558001518249512;-0.0;2.0
0.3584144115447998;-0.0;2.0
0.5812018513679504;-0.0;2.0
0.4325329065322876;-0.0;1.0
0.37921780347824097;-0.0;1.0
0.5392600893974304;-0.0;1.0
0.7386134266853333;-0.0;1.0
0.9595915079116821;-0.0;1.0
0.8930132389068604;-0.0;2.0
0.6677539348602295;-0.0;1.0
0.08609884977340698;-0.0;1.0
-0.4215284585952759;-0.0;1.0
-0.4693005084991455;-0.0;1.0
-0.32186734676361084;-0.0;1.0
-0.23624348640441895;-0.0;1.0
-0.2567617893218994;-0.0;1.0
-0.34044086933135986;-0.0;1.0
-0.35999608039855957;-0.0;1.0
-0.3301067352294922;-0.0;1.0
-0.33633995056152344;-0.0;2.0
-0.35076022148132324;-0.0;1.0
-0.33798444271087646;-0.0;1.0
-0.30838966369628906;-0.0;1.0
-0.29328596591949463;-0.0;1.0
-0.27998507022857666;-0.0;2.0
-0.3850977420806885;-0.0;2.0
-0.5810866355895996;-0.0;2.0
-0.652978777885437;-0.0;1.0
-0.43025970458984375;-0.0;1.0
-0.135542631149292;-0.0;1.0
0.028998374938964844;-0.0;1.0
0.050337135791778564;-0.0;2.0
0.038838863372802734;-0.0;2.0
0.014458894729614258;-0.0;2.0
-0.027127861976623535;-0.0;1.0
-0.09480535984039307;-0.0;1.0
-0.11631500720977783;-0.0;1.0
-0.0731278657913208;-0.0;2.0
0.005475103855133057;-0.0;2.0
0.1002379059791565;-0.0;2.0
0.1770992875099182;-0.0;2.0
0.19944751262664795;-0.0;2.0
0.20667606592178345;-0.0;2.0
0.20922333002090454;-0.0;2.0
0.2202855348587036;-0.0;2.0
0.2622462511062622;-0.0;2.0
0.36847901344299316;-0.0;2.0
0.4281143546104431;-0.0;2.0
0.35316020250320435;-0.0;2.0
0.17992520332336426;-0.0;2.0
0.09255766868591309;-0.0;2.0
0.14189445972442627;-0.0;2.0
0.2389952540397644;-0.0;2.0
0.3108871579170227;-0.0;2.0
0.3587772250175476;-0.0;2.0
0.3690406084060669;-0.0;2.0
0.331246554851532;-0.0;2.0
0.2940356731414795;-0.0;2.0
0.29106956720352173;-0.0;2.0
0.26257240772247314;-0.0;2.0
0.23028826713562012;-0.0;2.0
0.31518691778182983;-0.0;2.0
0.45541441440582275;-0.0;2.0
0.47976094484329224;-0.0;2.0
0.5043245553970337;-0.0;1.0
0.3794344663619995;-0.0;1.0
0.35591691732406616;-0.0;1.0
0.4910241365432739;-0.0;1.0
0.8524250388145447;-0.0;1.0
0.7746700048446655;-0.0;2.0
0.6101146936416626;-0.0;2.0
0.24348586797714233;-0.0;1.0
-0.12138700485229492;-0.0;1.0
-0.23597455024719238;-0.0;1.0
-0.2285299301147461;-0.0;1.0
-0.28498315811157227;-0.0;2.0
-0.4093366861343384;-0.0;1.0
-0.48307061195373535;-0.0;1.0
-0.4073758125305176;-0.0;1.0
-0.3166842460632324;-0.0;2.0
-0.29556238651275635;-0.0;2.0
-0.29825377464294434;-0.0;1.0
-0.32734882831573486;-0.0;1.0
-0.3972839117050171;-0.0;1.0
-0.44004690647125244;-0.0;1.0
-0.39520466327667236;-0.0;2.0
-0.43228840827941895;-0.0;2.0
-0.5616999864578247;-0.0;1.0
-0.6481959819793701;-0.0;2.0
-0.5822964906692505;-0.0;2.0
-0.43191957473754883;-0.0;2.0
-0.20470905303955078;-0.0;1.0
-0.008268952369689941;-0.0;1.0
0.050550878047943115;-0.0;1.0
-0.013522028923034668;-0.0;1.0
-0.06803488731384277;-0.0;1.0
-0.060575246810913086;-0.0;2.0
-0.07055401802062988;-0.0;2.0
-0.1134260892868042;-0.0;1.0
-0.1057131290435791;-0.0;1.0
0.021284878253936768;-0.0;2.0
0.15878432989120483;-0.0;2.0
0.18507122993469238;-0.0;2.0
0.13443750143051147;-0.0;2.0
0.14563488960266113;-0.0;2.0
0.2185797095298767;-0.0;2.0
0.2705259323120117;-0.0;2.0
0.3080165386199951;-0.0;2.0
0.3329421877861023;-0.0;2.0
0.2963709235191345;-0.0;2.0
0.1634504795074463;-0.0;2.0
0.05065339803695679;-0.0;2.0
0.06829220056533813;-0.0;2.0
0.18561303615570068;-0.0;2.0
0.2754003405570984;-0.0;2.0
0.2926452159881592;-0.0;2.0
0.2383076548576355;-0.0;2.0
0.1627436876296997;-0.0;2.0
0.144037127494812;-0.0;2.0
0.2248464822769165;-0.0;2.0
0.3239951729774475;-0.0;2.0
0.40396857261657715;-0.0;2.0
0.48484671115875244;-0.0;2.0
0.5882312655448914;-0.0;2.0
0.6655831933021545;-0.0;2.0
0.7115800380706787;-0.0;2.0
0.8039743900299072;-0.0;2.0
0.34469228982925415;-0.0;1.0
0.3201759457588196;-0.0;1.0
0.3590167164802551;-0.0;1.0
0.6611523628234863;-0.0;1.0
0.5145514011383057;-0.0;1.0
0.3916260600090027;-0.0;1.0
0.17627304792404175;-0.0;1.0
-0.050415635108947754;-0.0;1.0
-0.1744292974472046;-0.0;1.0
-0.23865318298339844;-0.0;1.0
-0.33934152126312256;-0.0;1.0
-0.45801568031311035;-0.0;1.0
-0.4830048084259033;-0.0;1.0
-0.4003782272338867;-0.0;1.0
-0.3561117649078369;-0.0;2.0
-0.37938201427459717;-0.0;2.0
-0.4058990478515625;-0.0;2.0
-0.44252896308898926;-0.0;2.0
-0.49501776695251465;-0.0;1.0
-0.5046937465667725;-0.0;1.0
-0.4331725835800171;-0.0;1.0
-0.38438963890075684;-0.0;1.0
-0.409216046333313;-0.0;1.0
-0.4874938726425171;-0.0;1.0
-0.550582766532898;-0.0;2.0
-0.555942177772522;-0.0;2.0
-0.3011190891265869;-0.0;2.0
0.02661234140396118;-0.0;2.0
0.12200695276260376;-0.0;2.0
0.02781808376312256;-0.0;1.0
-0.043416738510131836;-0.0;1.0
-0.016144633293151855;-0.0;2.0
-0.03121650218963623;-0.0;2.0
-0.14677274227142334;-0.0;2.0
-0.23079156875610352;-0.0;1.0
-0.10869038105010986;-0.0;1.0
0.055480122566223145;-0.0;2.0
0.11925894021987915;-0.0;2.0
0.10007411241531372;-0.0;2.0
0.17077314853668213;-0.0;2.0
0.30303043127059937;-0.0;2.0
0.3528788685798645;-0.0;2.0
0.2944256663322449;-0.0;2.0
0.2366083264350891;-0.0;2.0
0.23364567756652832;-0.0;2.0
0.20871466398239136;-0.0;2.0
0.14032810926437378;-0.0;2.0
0.09734708070755005;-0.0;2.0
0.14432883262634277;-0.0;2.0
0.1968684196472168;-0.0;2.0
0.2016887068748474;-0.0;2.0
0.15953218936920166;-0.0;2.0
0.12420934438705444;-0.0;2.0
0.13008356094360352;-0.0;2.0
0.21247470378875732;-0.0;2.0
0.35160505771636963;-0.0;2.0
0.5018606185913086;-0.0;2.0
0.6208212971687317;-0.0;2.0
0.7543290853500366;-0.0;2.0
0.8483932018280029;-0.0;2.0
0.8789740800857544;-0.0;2.0
0.8773654103279114;-0.0;2.0
0.9140870571136475;-0.0;2.0
0.22825229167938232;-0.0;1.0
0.2369595170021057;-0.0;1.0
0.30687862634658813;-0.0;1.0
0.9722819924354553;-0.0;1.0
0.6914676427841187;-0.0;1.0
0.30285853147506714;-0.0;1.0
0.08915024995803833;-0.0;1.0
-0.033564090728759766;-0.0;1.0
-0.10084354877471924;-0.0;1.0
-0.19012320041656494;-0.0;1.0
-0.3217428922653198;-0.0;1.0
-0.4416242837905884;-0.0;1.0
-0.47769081592559814;-0.0;1.0
-0.4318143129348755;-0.0;1.0
-0.3973311185836792;-0.0;1.0
-0.43798828125;-0.0;2.0
-0.534493088722229;-0.0;2.0
-0.6204867362976074;-0.0;1.0
-0.6355704069137573;-0.0;1.0
-0.5960178375244141;-0.0;1.0
-0.5342071056365967;-0.0;1.0
-0.46908891201019287;-0.0;1.0
-0.41184353828430176;-0.0;1.0
-0.3657146692276001;-0.0;1.0
-0.3718395233154297;-0.0;1.0
-0.4020702838897705;-0.0;1.0
-0.4077136516571045;-0.0;1.0
-0.16850972175598145;-0.0;1.0
0.08469414710998535;-0.0;2.0
0.141435444355011;-0.0;2.0
0.030901789665222168;-0.0;1.0
-0.048885464668273926;-0.0;1.0
-0.03356373310089111;-0.0;2.0
-0.05078911781311035;-0.0;2.0
-0.17588496208190918;-0.0;2.0
-0.30331289768218994;-0.0;1.0
-0.23470830917358398;-0.0;1.0
-0.07928121089935303;-0.0;2.0
0.035469114780426025;-0.0;2.0
0.11470496654510498;-0.0;2.0
0.23825764656066895;-0.0;2.0
0.3625161051750183;-0.0;2.0
0.38303589820861816;-0.0;2.0
0.28732389211654663;-0.0;2.0
0.19866585731506348;-0.0;2.0
0.20530259609222412;-0.0;2.0
0.23360955715179443;-0.0;2.0
0.2051527500152588;-0.0;2.0
0.1335134506225586;-0.0;2.0
0.09739398956298828;-0.0;2.0
0.10021674633026123;-0.0;2.0
0.1275976300239563;-0.0;2.0
0.16924309730529785;-0.0;2.0
0.2080671787261963;-0.0;2.0
0.2219260334968567;-0.0;2.0
0.24984288215637207;-0.0;2.0
0.34361517429351807;-0.0;2.0
0.49155670404434204;-0.0;2.0
0.625830888748169;-0.0;2.0
0.7694375514984131;-0.0;2.0
0.8738743662834167;-0.0;2.0
0.9102649688720703;-0.0;2.0
0.9055770635604858;-0.0;2.0
0.922825276851654;-0.0;2.0
0.1935855746269226;-0.0;1.0
0.14090591669082642;-0.0;1.0
0.16022014617919922;-0.0;1.0
0.2316243052482605;-0.0;1.0
0.9912241101264954;-0.0;1.0
0.9957214593887329;-0.0;1.0
0.9952248930931091;-0.0;1.0
0.9755667448043823;-0.0;1.0
0.8424853682518005;-0.0;1.0
0.44952690601348877;-0.0;1.0
-0.04404711723327637;-0.0;1.0
-0.26325130462646484;-0.0;1.0
-0.19299745559692383;-0.0;1.0
-0.2002265453338623;-0.0;1.0
-0.37826478481292725;-0.0;1.0
-0.54256272315979;-0.0;1.0
-0.5283200740814209;-0.0;1.0
-0.45150065422058105;-0.0;2.0
-0.44248175621032715;-0.0;2.0
-0.47995471954345703;-0.0;2.0
-0.5469241142272949;-0.0;1.0
-0.6338119506835938;-0.0;1.0
-0.6742887496948242;-0.0;1.0
-0.6523700952529907;-0.0;2.0
-0.6219967603683472;-0.0;2.0
-0.6157751083374023;-0.0;2.0
-0.5796328783035278;-0.0;1.0
-0.45948326587677;-0.0;1.0
-0.34447360038757324;-0.0;1.0
-0.2460918426513672;-0.0;1.0
-0.15861928462982178;-0.0;1.0
-0.016824960708618164;-0.0;2.0
0.0729561448097229;-0.0;2.0
0.0498393177986145;-0.0;2.0
-0.058030128479003906;-0.0;1.0
-0.1053469181060791;-0.0;1.0
-0.07747793197631836;-0.0;2.0
-0.08311152458190918;-0.0;2.0
-0.18120503425598145;-0.0;2.0
-0.27420127391815186;-0.0;2.0
-0.2385554313659668;-0.0;2.0
-0.11645805835723877;-0.0;2.0
0.01747894287109375;-0.0;2.0
0.1337924599647522;-0.0;2.0
0.24219262599945068;-0.0;2.0
0.313043475151062;-0.0;2.0
0.30669599771499634;-0.0;2.0
0.2392156720161438;-0.0;2.0
0.1850765347480774;-0.0;2.0
0.18971318006515503;-0.0;2.0
0.20657819509506226;-0.0;2.0
0.1983911395072937;-0.0;2.0
0.15375769138336182;-0.0;2.0
0.08818614482879639;-0.0;2.0
0.05616414546966553;-0.0;2.0
0.11422771215438843;-0.0;2.0
0.21504467725753784;-0.0;2.0
0.2796739935874939;-0.0;2.0
0.29503804445266724;-0.0;2.0
0.319507896900177;-0.0;2.0
0.3964230418205261;-0.0;2.0
0.49692869186401367;-0.0;2.0
0.5811821222305298;-0.0;2.0
0.6844258308410645;-0.0;2.0
0.7931920886039734;-0.0;2.0
0.868310272693634;-0.0;2.0
0.8967471122741699;-0.0;2.0
0.14303570985794067;-0.0;1.0
0.11300051212310791;-0.0;1.0
0.15333318710327148;-0.0;1.0
0.22025251388549805;-0.0;1.0
0.7698577642440796;-0.0;1.0
0.7771733403205872;-0.0;1.0
0.738042414188385;-0.0;1.0
0.7833460569381714;-0.0;1.0
0.8223579525947571;-0.0;1.0
0.9312983751296997;-0.0;1.0
0.9792308807373047;-0.0;1.0
0.9879977703094482;-0.0;1.0
0.9885028004646301;-0.0;1.0
0.9816582798957825;-0.0;1.0
0.967214822769165;-0.0;2.0
0.9127671122550964;-0.0;2.0
0.6261881589889526;-0.0;2.0
0.045761168003082275;-0.0;1.0
-0.2913181781768799;-0.0;1.0
-0.2526360750198364;-0.0;1.0
-0.239496111869812;-0.0;1.0
-0.40625131130218506;-0.0;1.0
-0.5932736396789551;-0.0;1.0
-0.6040412187576294;-0.0;2.0
-0.5328702926635742;-0.0;2.0
-0.49184346199035645;-0.0;2.0
-0.46825122833251953;-0.0;1.0
-0.4606773853302002;-0.0;1.0
-0.4863288402557373;-0.0;1.0
-0.5356850624084473;-0.0;2.0
-0.5880632400512695;-0.0;2.0
-0.647718071937561;-0.0;2.0
-0.7211439609527588;-0.0;2.0
-0.7368224859237671;-0.0;2.0
-0.6068106889724731;-0.0;1.0
-0.36857616901397705;-0.0;1.0
-0.16555488109588623;-0.0;1.0
-0.052956581115722656;-0.0;2.0
0.006891608238220215;-0.0;2.0
-0.0116194486618042;-0.0;2.0
-0.0906609296798706;-0.0;2.0
-0.1843928098678589;-0.0;2.0
-0.17025673389434814;-0.0;2.0
-0.10610318183898926;-0.0;2.0
-0.08626687526702881;-0.0;2.0
-0.1421053409576416;-0.0;2.0
-0.18065369129180908;-0.0;2.0
-0.1419614553451538;-0.0;2.0
-0.051731109619140625;-0.0;2.0
0.05990499258041382;-0.0;2.0
0.14120566844940186;-0.0;2.0
0.18932753801345825;-0.0;2.0
0.21278762817382812;-0.0;2.0
0.2175353765487671;-0.0;2.0
0.20670771598815918;-0.0;2.0
0.18730854988098145;-0.0;2.0
0.17385870218276978;-0.0;2.0
0.16665565967559814;-0.0;2.0
0.18183255195617676;-0.0;2.0
0.1824166178703308;-0.0;2.0
0.13137608766555786;-0.0;2.0
0.06612306833267212;-0.0;2.0
0.10769450664520264;-0.0;2.0
0.21916824579238892;-0.0;2.0
0.30147886276245117;-0.0;2.0
0.3484891653060913;-0.0;2.0
0.4138641953468323;-0.0;2.0
0.5195472240447998;-0.0;2.0
0.5984299182891846;-0.0;2.0
0.6284210681915283;-0.0;2.0
0.6583189964294434;-0.0;2.0
0.7359529733657837;-0.0;2.0
0.8181412220001221;-0.0;2.0
0.8701897263526917;-0.0;2.0
0.12920576333999634;-0.0;1.0
0.14867514371871948;-0.0;1.0
0.2215632200241089;-0.0;1.0
0.2919366955757141;-0.0;1.0
0.36798614263534546;-0.0;1.0
0.4939425587654114;-0.0;1.0
0.67063307762146;-0.0;1.0
0.7891292572021484;-0.0;1.0
0.8034487962722778;-0.0;1.0
0.7721900343894958;-0.0;1.0
0.8023509979248047;-0.0;1.0
0.6466208696365356;-0.0;2.0
0.7687280774116516;-0.0;2.0
0.9097076058387756;-0.0;2.0
0.953964352607727;-0.0;2.0
0.9642723798751831;-0.0;2.0
0.9661657810211182;-0.0;2.0
0.9556531310081482;-0.0;2.0
0.9542843103408813;-0.0;1.0
0.8758106231689453;-0.0;1.0
0.5737210512161255;-0.0;1.0
0.10677224397659302;-0.0;1.0
-0.1407395601272583;-0.0;1.0
-0.2138054370880127;-0.0;1.0
-0.30243170261383057;-0.0;1.0
-0.4874049425125122;-0.0;1.0
-0.6418300867080688;-0.0;1.0
-0.665410041809082;-0.0;1.0
-0.587871789932251;-0.0;2.0
-0.49856293201446533;-0.0;2.0
-0.46515119075775146;-0.0;1.0
-0.47408318519592285;-0.0;1.0
-0.46237289905548096;-0.0;1.0
-0.4501810073852539;-0.0;2.0
-0.5323189496994019;-0.0;2.0
-0.6435525417327881;-0.0;2.0
-0.7305130958557129;-0.0;2.0
-0.7467852830886841;-0.0;1.0
-0.6417920589447021;-0.0;1.0
-0.37178969383239746;-0.0;1.0
-0.12223970890045166;-0.0;2.0
-0.017655611038208008;-0.0;2.0
-0.01600968837738037;-0.0;2.0
-0.08911192417144775;-0.0;2.0
-0.1874525547027588;-0.0;2.0
-0.2644902467727661;-0.0;2.0
-0.21835243701934814;-0.0;2.0
-0.15040111541748047;-0.0;2.0
-0.10989558696746826;-0.0;2.0
-0.11733078956604004;-0.0;2.0
-0.12327849864959717;-0.0;2.0
-0.10758054256439209;-0.0;2.0
-0.03938460350036621;-0.0;2.0
0.07419097423553467;-0.0;2.0
0.14328068494796753;-0.0;2.0
0.1530444622039795;-0.0;2.0
0.15089809894561768;-0.0;2.0
0.1623743772506714;-0.0;2.0
0.16717976331710815;-0.0;2.0
0.14913862943649292;-0.0;2.0
0.13133037090301514;-0.0;2.0
0.13413578271865845;-0.0;2.0
0.17260873317718506;-0.0;2.0
0.18419313430786133;-0.0;2.0
0.14309334754943848;-0.0;2.0
0.07958948612213135;-0.0;2.0
0.10608780384063721;-0.0;2.0
0.20758843421936035;-0.0;2.0
0.31120985746383667;-0.0;2.0
0.38968950510025024;-0.0;2.0
0.4787646532058716;-0.0;2.0
0.5924555659294128;-0.0;2.0
0.6746221780776978;-0.0;2.0
0.7112789154052734;-0.0;2.0
0.7165165543556213;-0.0;2.0
0.7579364776611328;-0.0;2.0
0.8208000659942627;-0.0;2.0
0.15409088134765625;-0.0;1.0
0.17625445127487183;-0.0;1.0
0.24450057744979858;-0.0;1.0
0.3237118721008301;-0.0;1.0
0.380246102809906;-0.0;1.0
0.4473455548286438;-0.0;1.0
0.5538899898529053;-0.0;1.0
0.6947457194328308;-0.0;1.0
0.7918341159820557;-0.0;1.0
0.834161639213562;-0.0;1.0
0.8420852422714233;-0.0;1.0
0.8632177710533142;-0.0;1.0
0.36265987157821655;-0.0;1.0
0.448434054851532;-0.0;2.0
0.7328299283981323;-0.0;2.0
0.8720841407775879;-0.0;2.0
0.8993692398071289;-0.0;2.0
0.8901619911193848;-0.0;2.0
0.8578898310661316;-0.0;2.0
0.8016059398651123;-0.0;2.0
0.9297344088554382;-0.0;1.0
0.7445880770683289;-0.0;1.0
0.3227805495262146;-0.0;1.0
0.02415943145751953;-0.0;1.0
-0.052922606468200684;-0.0;1.0
-0.15380966663360596;-0.0;1.0
-0.3512674570083618;-0.0;1.0
-0.5889425277709961;-0.0;1.0
-0.707514762878418;-0.0;1.0
-0.6993069648742676;-0.0;1.0
-0.586172342300415;-0.0;1.0
-0.4764817953109741;-0.0;2.0
-0.5148205757141113;-0.0;2.0
-0.637389063835144;-0.0;1.0
-0.6660447120666504;-0.0;1.0
-0.6012488603591919;-0.0;2.0
-0.6248513460159302;-0.0;2.0
-0.6903911828994751;-0.0;2.0
-0.7220731973648071;-0.0;1.0
-0.6642696857452393;-0.0;1.0
